{"learner":{"attributes":{"scikit_learn":"{\"_estimator_type\": \"regressor\"}"},"feature_names":["Click-Throug_Rate_anon","Conversion_Rate_anon","day","month","quater","year","campaign_max_day","campaign_max_week","campaign_max_month","campaign_max_total","cpl_lag_1","cpl_lag_2","cpl_lag_3","cpl_lag_7","rolling_mean","day_of_the_week_2","day_of_the_week_3","day_of_the_week_4","day_of_the_week_5","day_of_the_week_6","day_of_the_week_7","target_business_anon_target_business_002","target_business_anon_target_business_003","target_business_anon_target_business_004","target_business_anon_target_business_005","target_business_anon_target_business_006"],"feature_types":["float","float","int","int","int","int","float","float","float","float","float","float","float","float","float","i","i","i","i","i","i","i","i","i","i","i"],"gradient_booster":{"model":{"cats":{"enc":[],"feature_segments":[],"sorted_idx":[]},"gbtree_model_param":{"num_parallel_tree":"1","num_trees":"500"},"iteration_indptr":[0,1,2,3,4,5,6,7,8,9,10,11,12,13,14,15,16,17,18,19,20,21,22,23,24,25,26,27,28,29,30,31,32,33,34,35,36,37,38,39,40,41,42,43,44,45,46,47,48,49,50,51,52,53,54,55,56,57,58,59,60,61,62,63,64,65,66,67,68,69,70,71,72,73,74,75,76,77,78,79,80,81,82,83,84,85,86,87,88,89,90,91,92,93,94,95,96,97,98,99,100,101,102,103,104,105,106,107,108,109,110,111,112,113,114,115,116,117,118,119,120,121,122,123,124,125,126,127,128,129,130,131,132,133,134,135,136,137,138,139,140,141,142,143,144,145,146,147,148,149,150,151,152,153,154,155,156,157,158,159,160,161,162,163,164,165,166,167,168,169,170,171,172,173,174,175,176,177,178,179,180,181,182,183,184,185,186,187,188,189,190,191,192,193,194,195,196,197,198,199,200,201,202,203,204,205,206,207,208,209,210,211,212,213,214,215,216,217,218,219,220,221,222,223,224,225,226,227,228,229,230,231,232,233,234,235,236,237,238,239,240,241,242,243,244,245,246,247,248,249,250,251,252,253,254,255,256,257,258,259,260,261,262,263,264,265,266,267,268,269,270,271,272,273,274,275,276,277,278,279,280,281,282,283,284,285,286,287,288,289,290,291,292,293,294,295,296,297,298,299,300,301,302,303,304,305,306,307,308,309,310,311,312,313,314,315,316,317,318,319,320,321,322,323,324,325,326,327,328,329,330,331,332,333,334,335,336,337,338,339,340,341,342,343,344,345,346,347,348,349,350,351,352,353,354,355,356,357,358,359,360,361,362,363,364,365,366,367,368,369,370,371,372,373,374,375,376,377,378,379,380,381,382,383,384,385,386,387,388,389,390,391,392,393,394,395,396,397,398,399,400,401,402,403,404,405,406,407,408,409,410,411,412,413,414,415,416,417,418,419,420,421,422,423,424,425,426,427,428,429,430,431,432,433,434,435,436,437,438,439,440,441,442,443,444,445,446,447,448,449,450,451,452,453,454,455,456,457,458,459,460,461,462,463,464,465,466,467,468,469,470,471,472,473,474,475,476,477,478,479,480,481,482,483,484,485,486,487,488,489,490,491,492,493,494,495,496,497,498,499,500],"tree_info":[0,0,0,0,0,0,0,0,0,0,0,0,0,0,0,0,0,0,0,0,0,0,0,0,0,0,0,0,0,0,0,0,0,0,0,0,0,0,0,0,0,0,0,0,0,0,0,0,0,0,0,0,0,0,0,0,0,0,0,0,0,0,0,0,0,0,0,0,0,0,0,0,0,0,0,0,0,0,0,0,0,0,0,0,0,0,0,0,0,0,0,0,0,0,0,0,0,0,0,0,0,0,0,0,0,0,0,0,0,0,0,0,0,0,0,0,0,0,0,0,0,0,0,0,0,0,0,0,0,0,0,0,0,0,0,0,0,0,0,0,0,0,0,0,0,0,0,0,0,0,0,0,0,0,0,0,0,0,0,0,0,0,0,0,0,0,0,0,0,0,0,0,0,0,0,0,0,0,0,0,0,0,0,0,0,0,0,0,0,0,0,0,0,0,0,0,0,0,0,0,0,0,0,0,0,0,0,0,0,0,0,0,0,0,0,0,0,0,0,0,0,0,0,0,0,0,0,0,0,0,0,0,0,0,0,0,0,0,0,0,0,0,0,0,0,0,0,0,0,0,0,0,0,0,0,0,0,0,0,0,0,0,0,0,0,0,0,0,0,0,0,0,0,0,0,0,0,0,0,0,0,0,0,0,0,0,0,0,0,0,0,0,0,0,0,0,0,0,0,0,0,0,0,0,0,0,0,0,0,0,0,0,0,0,0,0,0,0,0,0,0,0,0,0,0,0,0,0,0,0,0,0,0,0,0,0,0,0,0,0,0,0,0,0,0,0,0,0,0,0,0,0,0,0,0,0,0,0,0,0,0,0,0,0,0,0,0,0,0,0,0,0,0,0,0,0,0,0,0,0,0,0,0,0,0,0,0,0,0,0,0,0,0,0,0,0,0,0,0,0,0,0,0,0,0,0,0,0,0,0,0,0,0,0,0,0,0,0,0,0,0,0,0,0,0,0,0,0,0,0,0,0,0,0,0,0,0,0,0,0,0,0,0,0,0,0,0,0,0,0,0,0,0,0,0,0,0,0,0,0,0,0,0,0,0,0,0,0,0,0,0,0,0,0,0,0,0,0,0,0,0,0,0,0,0,0,0,0,0,0,0,0,0,0,0,0,0,0,0,0],"trees":[{"base_weights":[-9.176038E-4,-4.636136E-1,8.9962155E-1,-8.372668E-1,-1.8772821E-1,6.5019155E-1,1.6884072E0,-6.1538E-2,-6.918165E-1,-1.1162863E0,-1.3752759E-1,-7.2240967E-1,7.245417E-1,1.4742764E0,2.0667644E0,-8.528537E-1,-5.9908694E-1,-9.0747595E-1,-1.1884967E0,-3.0458486E-1,6.802605E-2,5.8194377E-2,-1.0996003E0,1.3845576E0,5.719529E-1,1.697277E0,7.082966E-1,2.19199E0,1.7510794E0,-5.105399E-2,-4.048199E-2,-1.0731423E-2,-3.177223E-2,-5.30132E-2,-3.5848077E-2,-5.621871E-2,-6.0879212E-2,-6.923391E-3,-1.9370874E-2,1.8273583E-2,-2.5007406E-3,-1.8970778E-2,5.3585585E-2,-4.0547837E-2,-5.7501823E-2,5.1345795E-2,8.2698606E-2,1.8680548E-2,4.0890392E-2,9.8278634E-2,7.9211086E-2,-3.9230835E-2,4.6243984E-2,1.0257614E-1,1.1419095E-1,6.92129E-2,1.1358005E-1],"categories":[],"categories_nodes":[],"categories_segments":[],"categories_sizes":[],"default_left":[1,1,0,0,0,0,0,0,0,1,0,1,0,0,0,0,1,0,0,0,0,0,0,0,0,0,0,0,0,0,0,0,0,0,0,0,0,0,0,0,0,0,0,0,0,0,0,0,0,0,0,0,0,0,0,0,0],"id":0,"left_children":[1,3,5,7,9,11,13,-1,15,17,19,21,23,25,27,29,31,33,35,37,39,41,43,45,47,49,51,53,55,-1,-1,-1,-1,-1,-1,-1,-1,-1,-1,-1,-1,-1,-1,-1,-1,-1,-1,-1,-1,-1,-1,-1,-1,-1,-1,-1,-1],"loss_changes":[3.30949E4,5.4085303E3,5.3028027E3,1.2746016E3,1.4068494E3,2.090879E3,5.21625E2,0E0,2.4249268E2,2.2262695E1,9.833932E2,3.101057E2,1.956125E3,7.057959E2,8.8586914E1,4.2384766E1,1.4425635E2,1.0941345E1,7.705078E-1,2.1732544E2,4.5084012E2,1.5297931E2,9.4036255E0,3.4980078E2,7.69374E2,9.410156E1,3.0304834E2,1.6855957E1,1.2459326E2,0E0,0E0,0E0,0E0,0E0,0E0,0E0,0E0,0E0,0E0,0E0,0E0,0E0,0E0,0E0,0E0,0E0,0E0,0E0,0E0,0E0,0E0,0E0,0E0,0E0,0E0,0E0,0E0],"parents":[2147483647,0,0,1,1,2,2,3,3,4,4,5,5,6,6,8,8,9,9,10,10,11,11,12,12,13,13,14,14,15,15,16,16,17,17,18,18,19,19,20,20,21,21,22,22,23,23,24,24,25,25,26,26,27,27,28,28],"right_children":[2,4,6,8,10,12,14,-1,16,18,20,22,24,26,28,30,32,34,36,38,40,42,44,46,48,50,52,54,56,-1,-1,-1,-1,-1,-1,-1,-1,-1,-1,-1,-1,-1,-1,-1,-1,-1,-1,-1,-1,-1,-1,-1,-1,-1,-1,-1,-1],"split_conditions":[1.5283602E-1,-6.802862E-1,1.5041424E0,-1.3605105E0,-1.3605105E0,-1.3605105E0,2.24911E0,-6.1538E-2,-9.639889E-1,-3.2503378E-1,-2.7992058E-1,2.692339E-1,-7.118106E-1,2.2360466E0,2.934858E0,-1.2130631E0,-1.0649862E0,-3.7803853E-1,8.4113754E-2,-3.4445736E-1,-4.7605017E-1,8.962368E-1,6.4409333E-1,6.236437E-1,7.1237445E-1,-5.5134094E-1,-1.3605105E0,2.536183E0,3.032676E0,-5.105399E-2,-4.048199E-2,-1.0731423E-2,-3.177223E-2,-5.30132E-2,-3.5848077E-2,-5.621871E-2,-6.0879212E-2,-6.923391E-3,-1.9370874E-2,1.8273583E-2,-2.5007406E-3,-1.8970778E-2,5.3585585E-2,-4.0547837E-2,-5.7501823E-2,5.1345795E-2,8.2698606E-2,1.8680548E-2,4.0890392E-2,9.8278634E-2,7.9211086E-2,-3.9230835E-2,4.6243984E-2,1.0257614E-1,1.1419095E-1,6.92129E-2,1.1358005E-1],"split_indices":[14,14,14,1,1,1,14,0,14,11,14,11,1,11,11,14,11,14,11,1,1,14,11,14,14,1,1,14,14,0,0,0,0,0,0,0,0,0,0,0,0,0,0,0,0,0,0,0,0,0,0,0,0,0,0,0,0],"split_type":[0,0,0,0,0,0,0,0,0,0,0,0,0,0,0,0,0,0,0,0,0,0,0,0,0,0,0,0,0,0,0,0,0,0,0,0,0,0,0,0,0,0,0,0,0,0,0,0,0,0,0,0,0,0,0,0,0],"sum_hessian":[7.9424E4,5.2467E4,2.6957E4,2.2284E4,3.0183E4,2.0482E4,6.475E3,6.012E3,1.6272E4,1.547E3,2.8636E4,1.052E3,1.943E4,4.138E3,2.337E3,5.943E3,1.0329E4,4.01E2,1.146E3,1.5797E4,1.2839E4,3.43E2,7.09E2,3.647E3,1.5783E4,3.204E3,9.34E2,1.669E3,6.68E2,1.21E3,4.733E3,8.93E2,9.436E3,2.2E2,1.81E2,3.7E2,7.76E2,5.257E3,1.054E4,3.647E3,9.192E3,2.4E2,1.03E2,1.08E2,6.01E2,1.569E3,2.078E3,8.737E3,7.046E3,9.45E2,2.259E3,1.18E2,8.16E2,6.69E2,1E3,3.94E2,2.74E2],"tree_param":{"num_deleted":"0","num_feature":"26","num_nodes":"57","size_leaf_vector":"1"}},{"base_weights":[1.1570838E-3,-4.3676412E-1,8.543498E-1,-7.5943047E-1,-1.458655E-1,5.468484E-1,1.4592066E0,-1.1676592E0,-6.247767E-1,-1.05599E0,-9.994844E-2,-7.4154294E-1,6.163199E-1,1.2215921E0,1.8883221E0,-5.864438E-2,-1.1180382E0,-7.6246154E-1,-5.091967E-1,-7.792261E-1,-1.1227714E0,-2.3575723E-1,1.00379206E-1,4.0470454E-1,-9.695251E-1,1.2394905E0,4.7483775E-1,1.4208835E0,2.9032195E-1,2.0192075E0,1.5785431E0,-5.083499E-2,-5.813193E-2,-4.4545602E-2,-3.512758E-2,-7.1224025E-3,-2.7306044E-2,2.4570236E-2,-5.6351293E-2,-5.2712422E-2,-5.7889022E-2,-2.1256234E-3,-1.5656354E-2,1.9569933E-2,-1.1053722E-3,1.0876725E-1,-5.980271E-2,-2.3903143E-2,-5.4126777E-2,7.568908E-2,4.565498E-2,2.743042E-2,4.0678494E-3,8.255573E-2,3.0019522E-2,2.7014708E-2,-4.312354E-2,1.0427357E-1,8.0791794E-2,5.460223E-2,1.0071253E-1],"categories":[],"categories_nodes":[],"categories_segments":[],"categories_sizes":[],"default_left":[1,1,0,0,0,0,0,1,0,0,0,0,0,0,0,0,0,0,1,0,1,0,0,0,1,0,0,0,1,0,0,0,0,0,0,0,0,0,0,0,0,0,0,0,0,0,0,0,0,0,0,0,0,0,0,0,0,0,0,0,0],"id":1,"left_children":[1,3,5,7,9,11,13,15,17,19,21,23,25,27,29,-1,31,33,35,37,39,41,43,45,47,49,51,53,55,57,59,-1,-1,-1,-1,-1,-1,-1,-1,-1,-1,-1,-1,-1,-1,-1,-1,-1,-1,-1,-1,-1,-1,-1,-1,-1,-1,-1,-1,-1,-1],"loss_changes":[2.9796338E4,4.946385E3,5.030162E3,1.3726855E3,1.1581108E3,1.605666E3,9.2719727E2,2.9589844E-1,2.9862842E2,2.3725586E1,7.178607E2,2.4028772E2,1.4997578E3,1.0890264E3,1.2846387E2,0E0,1.5840454E0,6.534766E1,1.3829321E2,1.1633818E2,1.3463135E0,2.3509613E2,3.8003067E2,4.3626016E2,4.202643E1,2.804463E2,4.0256445E2,9.123545E2,2.9900613E2,5.7546875E1,2.032002E2,0E0,0E0,0E0,0E0,0E0,0E0,0E0,0E0,0E0,0E0,0E0,0E0,0E0,0E0,0E0,0E0,0E0,0E0,0E0,0E0,0E0,0E0,0E0,0E0,0E0,0E0,0E0,0E0,0E0,0E0],"parents":[2147483647,0,0,1,1,2,2,3,3,4,4,5,5,6,6,7,7,8,8,9,9,10,10,11,11,12,12,13,13,14,14,16,16,17,17,18,18,19,19,20,20,21,21,22,22,23,23,24,24,25,25,26,26,27,27,28,28,29,29,30,30],"right_children":[2,4,6,8,10,12,14,16,18,20,22,24,26,28,30,-1,32,34,36,38,40,42,44,46,48,50,52,54,56,58,60,-1,-1,-1,-1,-1,-1,-1,-1,-1,-1,-1,-1,-1,-1,-1,-1,-1,-1,-1,-1,-1,-1,-1,-1,-1,-1,-1,-1,-1,-1],"split_conditions":[1.5283602E-1,-6.187089E-1,1.2259076E0,-1.3605105E0,-1.3605105E0,-1.3605105E0,2.0319672E0,-8.344717E-1,-8.796425E-1,-3.2503378E-1,-2.1415867E-1,-3.9341725E-2,-7.118106E-1,2.3342624E0,2.761639E0,-5.864438E-2,-4.754099E-1,-1.0981722E0,-9.283084E-1,7.20236E-2,8.4113754E-2,-4.4069728E-1,-4.6663243E-1,1.7249014E0,2.5811127E-1,1.223268E-1,1.2739626E0,1.9920373E0,1.1828886E0,3.3349261E0,2.6645317E0,-5.083499E-2,-5.813193E-2,-4.4545602E-2,-3.512758E-2,-7.1224025E-3,-2.7306044E-2,2.4570236E-2,-5.6351293E-2,-5.2712422E-2,-5.7889022E-2,-2.1256234E-3,-1.5656354E-2,1.9569933E-2,-1.1053722E-3,1.0876725E-1,-5.980271E-2,-2.3903143E-2,-5.4126777E-2,7.568908E-2,4.565498E-2,2.743042E-2,4.0678494E-3,8.255573E-2,3.0019522E-2,2.7014708E-2,-4.312354E-2,1.0427357E-1,8.0791794E-2,5.460223E-2,1.0071253E-1],"split_indices":[14,14,14,1,1,1,14,14,14,11,14,11,1,10,11,0,11,14,11,10,11,1,1,10,11,10,11,11,11,10,14,0,0,0,0,0,0,0,0,0,0,0,0,0,0,0,0,0,0,0,0,0,0,0,0,0,0,0,0,0,0],"split_type":[0,0,0,0,0,0,0,0,0,0,0,0,0,0,0,0,0,0,0,0,0,0,0,0,0,0,0,0,0,0,0,0,0,0,0,0,0,0,0,0,0,0,0,0,0,0,0,0,0,0,0,0,0,0,0,0,0,0,0,0,0],"sum_hessian":[7.9746E4,5.2698E4,2.7048E4,2.4984E4,2.7714E4,1.7933E4,9.115E3,6.195E3,1.8789E4,1.33E3,2.6384E4,9.17E2,1.7016E4,5.869E3,3.246E3,5.584E3,6.11E2,8.572E3,1.0217E4,2.61E2,1.069E3,1.5724E4,1.066E4,1.52E2,7.65E2,3.147E3,1.3869E4,4.834E3,1.035E3,2.278E3,9.68E2,1.94E2,4.17E2,2.722E3,5.85E3,9.35E2,9.282E3,5.6E1,2.05E2,3.72E2,6.97E2,4.496E3,1.1228E4,3.157E3,7.503E3,7.2E1,8E1,1.44E2,6.21E2,1.708E3,1.439E3,1.1679E4,2.19E3,3.774E3,1.06E3,8.51E2,1.84E2,1.953E3,3.25E2,4.59E2,5.09E2],"tree_param":{"num_deleted":"0","num_feature":"26","num_nodes":"61","size_leaf_vector":"1"}},{"base_weights":[1.3167475E-3,-3.7552494E-1,9.00759E-1,-6.947078E-1,-7.376517E-2,6.6369283E-1,1.560653E0,-1.1078492E0,-5.6948084E-1,-9.700191E-1,-2.9218817E-2,-6.267298E-1,7.3753715E-1,1.3617401E0,1.8835839E0,-5.570779E-2,-1.0653243E0,-7.2000164E-1,-4.6096653E-1,-7.446895E-1,-1.0596182E0,-1.6913912E-1,1.7356972E-1,2.449472E-1,-1.0376372E0,1.3043245E0,5.769622E-1,1.5789763E0,6.313282E-1,1.9837643E0,1.5452131E0,-5.000479E-2,-5.514024E-2,-4.1846566E-2,-3.301275E-2,-1.9365216E-3,-2.4530143E-2,-4.8553735E-2,-2.7592504E-2,-4.837389E-2,-5.528443E-2,1.5330419E-3,-1.2593098E-2,2.6127577E-2,3.4372949E-3,-2.1770285E-2,5.8394413E-2,-3.7623208E-2,-5.578614E-2,7.6226644E-2,4.802717E-2,3.2138567E-2,2.2037004E-3,9.434456E-2,7.282145E-2,-4.3980703E-2,4.3261632E-2,9.443108E-2,1.0489881E-1,5.497698E-2,9.62385E-2],"categories":[],"categories_nodes":[],"categories_segments":[],"categories_sizes":[],"default_left":[1,1,0,0,0,0,0,1,0,1,0,0,0,0,0,0,0,0,1,0,0,0,0,0,1,0,0,0,0,0,0,0,0,0,0,0,0,0,0,0,0,0,0,0,0,0,0,0,0,0,0,0,0,0,0,0,0,0,0,0,0],"id":2,"left_children":[1,3,5,7,9,11,13,15,17,19,21,23,25,27,29,-1,31,33,35,37,39,41,43,45,47,49,51,53,55,57,59,-1,-1,-1,-1,-1,-1,-1,-1,-1,-1,-1,-1,-1,-1,-1,-1,-1,-1,-1,-1,-1,-1,-1,-1,-1,-1,-1,-1,-1,-1],"loss_changes":[2.6992748E4,5.405522E3,3.677459E3,1.4104297E3,1.1518033E3,1.6490815E3,3.9659375E2,5.1416016E-1,3.4156445E2,2.6789673E1,7.7989514E2,3.3586746E2,1.4886572E3,6.0973193E2,7.713672E1,0E0,9.555664E-1,6.0694824E1,1.5222046E2,1.657724E1,3.0689697E0,2.6881943E2,4.1048288E2,1.8951411E2,1.3345093E1,2.7197656E2,4.4724072E2,1.091709E2,3.131809E2,1.5836426E1,9.007495E1,0E0,0E0,0E0,0E0,0E0,0E0,0E0,0E0,0E0,0E0,0E0,0E0,0E0,0E0,0E0,0E0,0E0,0E0,0E0,0E0,0E0,0E0,0E0,0E0,0E0,0E0,0E0,0E0,0E0,0E0],"parents":[2147483647,0,0,1,1,2,2,3,3,4,4,5,5,6,6,7,7,8,8,9,9,10,10,11,11,12,12,13,13,14,14,16,16,17,17,18,18,19,19,20,20,21,21,22,22,23,23,24,24,25,25,26,26,27,27,28,28,29,29,30,30],"right_children":[2,4,6,8,10,12,14,16,18,20,22,24,26,28,30,-1,32,34,36,38,40,42,44,46,48,50,52,54,56,58,60,-1,-1,-1,-1,-1,-1,-1,-1,-1,-1,-1,-1,-1,-1,-1,-1,-1,-1,-1,-1,-1,-1,-1,-1,-1,-1,-1,-1,-1,-1],"split_conditions":[2.9851902E-1,-5.6540394E-1,1.5410923E0,-1.3605105E0,-1.3605105E0,-1.3605105E0,2.24911E0,-8.719252E-1,-8.719252E-1,-2.824244E-1,-1.2990919E-1,6.3909554E-1,-6.341828E-1,2.2214084E0,3.0943472E0,-5.570779E-2,-4.9074996E-1,-1.0846637E0,-9.537583E-1,-9.239512E-1,2.319586E-1,-4.4069728E-1,-5.88112E-1,7.332622E-1,1.0602717E0,4.3944573E-1,1.7819406E0,-5.88112E-1,-1.3605105E0,2.6645317E0,2.8296854E0,-5.000479E-2,-5.514024E-2,-4.1846566E-2,-3.301275E-2,-1.9365216E-3,-2.4530143E-2,-4.8553735E-2,-2.7592504E-2,-4.837389E-2,-5.528443E-2,1.5330419E-3,-1.2593098E-2,2.6127577E-2,3.4372949E-3,-2.1770285E-2,5.8394413E-2,-3.7623208E-2,-5.578614E-2,7.6226644E-2,4.802717E-2,3.2138567E-2,2.2037004E-3,9.434456E-2,7.282145E-2,-4.3980703E-2,4.3261632E-2,9.443108E-2,1.0489881E-1,5.497698E-2,9.62385E-2],"split_indices":[14,14,14,1,1,1,14,14,14,10,14,10,1,10,10,0,10,14,10,10,10,1,1,14,10,10,10,1,1,14,14,0,0,0,0,0,0,0,0,0,0,0,0,0,0,0,0,0,0,0,0,0,0,0,0,0,0,0,0,0,0],"split_type":[0,0,0,0,0,0,0,0,0,0,0,0,0,0,0,0,0,0,0,0,0,0,0,0,0,0,0,0,0,0,0,0,0,0,0,0,0,0,0,0,0,0,0,0,0,0,0,0,0,0,0,0,0,0,0,0,0,0,0,0,0],"sum_hessian":[7.9635E4,5.6122E4,2.3513E4,2.7273E4,2.8849E4,1.73E4,6.213E3,6.342E3,2.0931E4,1.365E3,2.7484E4,9.36E2,1.6364E4,3.848E3,2.365E3,5.501E3,8.41E2,8.766E3,1.2165E4,3.91E2,9.74E2,1.6263E4,1.1221E4,3E2,6.36E2,3.611E3,1.2753E4,2.965E3,8.83E2,1.821E3,5.44E2,3.17E2,5.24E2,2.96E3,5.806E3,7.98E2,1.1367E4,1.78E2,2.13E2,3.32E2,6.42E2,4.762E3,1.1501E4,2.591E3,8.63E3,1.73E2,1.27E2,1.39E2,4.97E2,2.199E3,1.412E3,1.1351E4,1.402E3,8.4E2,2.125E3,1.18E2,7.65E2,1.003E3,8.18E2,2.52E2,2.92E2],"tree_param":{"num_deleted":"0","num_feature":"26","num_nodes":"61","size_leaf_vector":"1"}},{"base_weights":[-9.3823654E-4,-3.6491492E-1,8.3996093E-1,-6.552286E-1,-7.2331116E-2,5.7511634E-1,1.3767158E0,-1.0520828E0,-5.3829855E-1,-9.2403454E-1,-2.9437523E-2,-6.236331E-1,6.425761E-1,1.1758839E0,1.7173142E0,-5.2897166E-2,-1.0075799E0,-6.85927E-1,-4.345133E-1,-6.573477E-1,-1.0071688E0,-1.7801952E-1,1.2539193E-1,6.3099074E-1,-8.587717E-1,1.2722555E0,5.114272E-1,1.3904049E0,4.2060667E-1,1.8569787E0,1.4017533E0,-4.48961E-2,-5.257637E-2,-4.2732406E-2,-3.233951E-2,1.835493E-3,-2.3015011E-2,2.1211157E-2,-4.766159E-2,-4.4687476E-2,-5.209911E-2,2.1574365E-2,-1.0178658E-2,2.1339491E-2,9.782938E-4,1.08039714E-1,-5.3663414E-2,-2.7194342E-2,-5.306198E-2,7.281624E-2,3.8037058E-2,2.934506E-2,-9.713027E-4,7.815413E-2,2.5691176E-2,3.351645E-2,-3.7538163E-2,9.572483E-2,7.581205E-2,4.8776034E-2,9.3099885E-2],"categories":[],"categories_nodes":[],"categories_segments":[],"categories_sizes":[],"default_left":[1,1,0,0,0,0,0,1,0,1,0,0,0,0,0,0,0,0,0,0,0,0,0,0,1,1,0,1,1,0,0,0,0,0,0,0,0,0,0,0,0,0,0,0,0,0,0,0,0,0,0,0,0,0,0,0,0,0,0,0,0],"id":3,"left_children":[1,3,5,7,9,11,13,15,17,19,21,23,25,27,29,-1,31,33,35,37,39,41,43,45,47,49,51,53,55,57,59,-1,-1,-1,-1,-1,-1,-1,-1,-1,-1,-1,-1,-1,-1,-1,-1,-1,-1,-1,-1,-1,-1,-1,-1,-1,-1,-1,-1,-1,-1],"loss_changes":[2.4350746E4,4.716391E3,3.4158008E3,1.2927646E3,1.0103189E3,1.3019604E3,5.4110156E2,5.878906E-1,3.2957764E2,2.873645E1,6.0576355E2,2.5366086E2,1.2577305E3,8.0920605E2,1.2710254E2,0E0,2.713562E0,5.8123047E1,1.5367114E2,1.0217064E2,3.0527954E0,2.0937057E2,4.1128732E2,3.5689578E2,4.5516968E1,2.4614062E2,5.0535864E2,5.883135E2,3.2431992E2,3.7019043E1,1.7611096E2,0E0,0E0,0E0,0E0,0E0,0E0,0E0,0E0,0E0,0E0,0E0,0E0,0E0,0E0,0E0,0E0,0E0,0E0,0E0,0E0,0E0,0E0,0E0,0E0,0E0,0E0,0E0,0E0,0E0,0E0],"parents":[2147483647,0,0,1,1,2,2,3,3,4,4,5,5,6,6,7,7,8,8,9,9,10,10,11,11,12,12,13,13,14,14,16,16,17,17,18,18,19,19,20,20,21,21,22,22,23,23,24,24,25,25,26,26,27,27,28,28,29,29,30,30],"right_children":[2,4,6,8,10,12,14,16,18,20,22,24,26,28,30,-1,32,34,36,38,40,42,44,46,48,50,52,54,56,58,60,-1,-1,-1,-1,-1,-1,-1,-1,-1,-1,-1,-1,-1,-1,-1,-1,-1,-1,-1,-1,-1,-1,-1,-1,-1,-1,-1,-1,-1,-1],"split_conditions":[2.733812E-1,-5.519233E-1,1.3428736E0,-1.3605105E0,-1.3605105E0,-1.3605105E0,2.097928E0,-8.344717E-1,-8.719252E-1,-3.2503378E-1,-1.988873E-1,-1.2731284E-1,-7.5468314E-1,2.1319337E0,2.761639E0,-5.2897166E-2,-4.754099E-1,-1.1646326E0,-1.0971142E0,1.9656442E-1,8.4113754E-2,-9.026456E-1,-5.2202725E-1,1.7249014E0,6.3909554E-1,5.1959044E-1,1.6788999E0,2.3465881E0,1.4743776E0,3.3349261E0,2.8296854E0,-4.48961E-2,-5.257637E-2,-4.2732406E-2,-3.233951E-2,1.835493E-3,-2.3015011E-2,2.1211157E-2,-4.766159E-2,-4.4687476E-2,-5.209911E-2,2.1574365E-2,-1.0178658E-2,2.1339491E-2,9.782938E-4,1.08039714E-1,-5.3663414E-2,-2.7194342E-2,-5.306198E-2,7.281624E-2,3.8037058E-2,2.934506E-2,-9.713027E-4,7.815413E-2,2.5691176E-2,3.351645E-2,-3.7538163E-2,9.572483E-2,7.581205E-2,4.8776034E-2,9.3099885E-2],"split_indices":[14,14,14,1,1,1,14,14,14,11,14,11,1,10,11,0,11,14,11,10,11,11,1,10,10,11,11,11,11,10,14,0,0,0,0,0,0,0,0,0,0,0,0,0,0,0,0,0,0,0,0,0,0,0,0,0,0,0,0,0,0],"split_type":[0,0,0,0,0,0,0,0,0,0,0,0,0,0,0,0,0,0,0,0,0,0,0,0,0,0,0,0,0,0,0,0,0,0,0,0,0,0,0,0,0,0,0,0,0,0,0,0,0,0,0,0,0,0,0,0,0,0,0,0,0],"sum_hessian":[7.9558E4,5.5525E4,2.4033E4,2.787E4,2.7655E4,1.6094E4,7.939E3,6.341E3,2.1529E4,1.325E3,2.633E4,8.57E2,1.5237E4,4.997E3,2.942E3,5.583E3,7.58E2,8.885E3,1.2644E4,3.17E2,1.008E3,1.3436E4,1.2894E4,1.35E2,7.22E2,2.625E3,1.2612E4,3.891E3,1.106E3,2.036E3,9.06E2,2.23E2,5.35E2,1.669E3,7.216E3,6.56E2,1.1988E4,6.8E1,2.49E2,2.43E2,7.65E2,5.4E2,1.2896E4,3.35E3,9.544E3,7.1E1,6.4E1,2.84E2,4.38E2,1.929E3,6.96E2,1.1042E4,1.57E3,3.25E3,6.41E2,9.12E2,1.94E2,1.738E3,2.98E2,4.72E2,4.34E2],"tree_param":{"num_deleted":"0","num_feature":"26","num_nodes":"61","size_leaf_vector":"1"}},{"base_weights":[-2.1240383E-3,-3.336675E-1,8.312411E-1,-6.123025E-1,-4.39429E-2,6.2774116E-1,1.4489022E0,-9.994451E-1,-5.0069064E-1,-8.8852674E-1,-2.8408966E-3,-5.539981E-1,6.9600624E-1,1.5632676E0,8.951292E-1,-5.0273187E-2,-9.552523E-1,-6.289267E-1,-3.8406914E-1,-6.8550694E-1,-9.7370225E-1,-1.13348E-1,1.9566439E-1,3.4784475E-1,-9.029238E-1,1.1842966E0,5.2938527E-1,1.4280517E0,1.8289942E0,4.8034474E-1,1.6425153E0,-4.1947674E-2,-4.9895957E-2,-3.7558123E-2,-2.881887E-2,2.4594339E-3,-2.0554204E-2,1.8016381E-2,-4.567832E-2,-4.1920763E-2,-4.964733E-2,2.798124E-3,-1.0546821E-2,2.4199989E-2,4.137889E-3,9.8612696E-2,-4.336832E-2,-1.7678196E-2,-4.9630243E-2,6.8055496E-2,4.0208776E-2,3.0984351E-2,1.9821606E-3,7.968745E-2,3.5596944E-2,9.50618E-2,8.48692E-2,3.7590533E-2,-4.0209293E-2,9.1137655E-2,6.264456E-2],"categories":[],"categories_nodes":[],"categories_segments":[],"categories_sizes":[],"default_left":[1,1,0,0,0,0,0,1,0,1,0,0,0,0,0,0,0,0,1,0,0,0,0,0,1,1,0,1,1,1,1,0,0,0,0,0,0,0,0,0,0,0,0,0,0,0,0,0,0,0,0,0,0,0,0,0,0,0,0,0,0],"id":4,"left_children":[1,3,5,7,9,11,13,15,17,19,21,23,25,27,29,-1,31,33,35,37,39,41,43,45,47,49,51,53,55,57,59,-1,-1,-1,-1,-1,-1,-1,-1,-1,-1,-1,-1,-1,-1,-1,-1,-1,-1,-1,-1,-1,-1,-1,-1,-1,-1,-1,-1,-1,-1],"loss_changes":[2.2034115E4,4.6055537E3,2.8519678E3,1.256123E3,9.709505E2,1.377771E3,3.5478027E2,7.705078E-1,3.3738477E2,2.1777832E1,5.851276E2,2.9390695E2,1.3126768E3,1.6482422E2,2.9836505E2,0E0,3.1325073E0,6.8625E1,1.3843652E2,9.2633545E1,1.5419312E0,2.8312897E2,3.105018E2,5.169247E2,3.2805847E1,2.7487207E2,5.3230664E2,3.6587402E2,1.1681152E1,2.174999E2,2.1873657E1,0E0,0E0,0E0,0E0,0E0,0E0,0E0,0E0,0E0,0E0,0E0,0E0,0E0,0E0,0E0,0E0,0E0,0E0,0E0,0E0,0E0,0E0,0E0,0E0,0E0,0E0,0E0,0E0,0E0,0E0],"parents":[2147483647,0,0,1,1,2,2,3,3,4,4,5,5,6,6,7,7,8,8,9,9,10,10,11,11,12,12,13,13,14,14,16,16,17,17,18,18,19,19,20,20,21,21,22,22,23,23,24,24,25,25,26,26,27,27,28,28,29,29,30,30],"right_children":[2,4,6,8,10,12,14,16,18,20,22,24,26,28,30,-1,32,34,36,38,40,42,44,46,48,50,52,54,56,58,60,-1,-1,-1,-1,-1,-1,-1,-1,-1,-1,-1,-1,-1,-1,-1,-1,-1,-1,-1,-1,-1,-1,-1,-1,-1,-1,-1,-1,-1,-1],"split_conditions":[3.4023726E-1,-5.253259E-1,1.6212505E0,-1.3605105E0,-1.3605105E0,-1.3605105E0,3.0943472E0,-8.1906533E-1,-8.1906533E-1,-9.609254E-2,-4.7443945E-2,5.3293735E-1,-5.5134094E-1,2.3364131E0,2.6645317E0,-5.0273187E-2,-5.12787E-1,-1.070963E0,-9.929868E-1,1.223268E-1,8.4113754E-2,-3.081921E-1,-4.5786503E-1,1.8525537E0,-6.9383913E-1,5.8928806E-1,1.6788999E0,2.3465881E0,2.6080937E0,1.6788999E0,2.761639E0,-4.1947674E-2,-4.9895957E-2,-3.7558123E-2,-2.881887E-2,2.4594339E-3,-2.0554204E-2,1.8016381E-2,-4.567832E-2,-4.1920763E-2,-4.964733E-2,2.798124E-3,-1.0546821E-2,2.4199989E-2,4.137889E-3,9.8612696E-2,-4.336832E-2,-1.7678196E-2,-4.9630243E-2,6.8055496E-2,4.0208776E-2,3.0984351E-2,1.9821606E-3,7.968745E-2,3.5596944E-2,9.50618E-2,8.48692E-2,3.7590533E-2,-4.0209293E-2,9.1137655E-2,6.264456E-2],"split_indices":[14,14,14,1,1,1,10,14,14,11,14,10,1,14,14,0,11,14,10,10,11,1,1,11,11,11,11,11,11,11,11,0,0,0,0,0,0,0,0,0,0,0,0,0,0,0,0,0,0,0,0,0,0,0,0,0,0,0,0,0,0],"split_type":[0,0,0,0,0,0,0,0,0,0,0,0,0,0,0,0,0,0,0,0,0,0,0,0,0,0,0,0,0,0,0,0,0,0,0,0,0,0,0,0,0,0,0,0,0,0,0,0,0,0,0,0,0,0,0,0,0,0,0,0,0],"sum_hessian":[7.9746E4,5.705E4,2.2696E4,2.9081E4,2.7969E4,1.7073E4,5.623E3,6.506E3,2.2575E4,1.297E3,2.6672E4,9.32E2,1.6141E4,4.659E3,9.64E2,5.707E3,7.99E2,1.075E4,1.1825E4,3.86E2,9.11E2,1.7134E4,9.538E3,2.6E2,6.72E2,4.105E3,1.2036E4,3.092E3,1.567E3,6.21E2,3.43E2,2.2E2,5.79E2,3.228E3,7.522E3,6.94E2,1.1131E4,6.9E1,3.17E2,1.19E2,7.92E2,6.265E3,1.0869E4,2.683E3,6.855E3,1.11E2,1.49E2,9.5E1,5.77E2,2.8E3,1.305E3,1.0162E4,1.874E3,2.51E3,5.82E2,1.003E3,5.64E2,5.13E2,1.08E2,2.32E2,1.11E2],"tree_param":{"num_deleted":"0","num_feature":"26","num_nodes":"61","size_leaf_vector":"1"}},{"base_weights":[-6.676711E-4,-3.7718487E-1,6.637044E-1,-6.5587467E-1,-1.6744255E-1,3.8097176E-1,1.1487762E0,-9.1649157E-1,-5.542576E-1,-2.9879153E-1,-3.417287E-2,4.6658283E-1,-1.7535724E-1,9.30457E-1,1.4554212E0,-4.7720265E-2,-7.9530823E-1,-3.5350883E-1,-5.827453E-1,-2.2119847E-1,-4.6548596E-1,4.0413126E-2,-3.5920948E-1,1.1223406E0,3.6625353E-1,-6.984495E-4,-5.4093677E-1,1.1127292E0,9.2349775E-2,1.5791287E0,1.0943133E0,-3.3770524E-2,-4.2852383E-2,6.4771334E-3,-2.3178404E-2,-3.4431774E-2,-2.6019264E-2,5.1851077E-3,-1.4280232E-2,-2.1094887E-2,-3.7559137E-2,2.5395704E-2,-2.0584455E-3,-1.4834069E-2,-3.659105E-2,8.559973E-2,3.9135538E-2,9.562501E-3,3.2800905E-2,5.106738E-2,-3.8450123E-3,-2.1561123E-2,-3.902741E-2,6.7016184E-2,1.9801086E-2,7.291556E-2,-1.4982853E-3,8.357906E-2,6.262096E-2,3.3381633E-2,8.05527E-2],"categories":[],"categories_nodes":[],"categories_segments":[],"categories_sizes":[],"default_left":[1,1,0,1,0,0,0,1,1,1,1,0,1,0,0,0,1,0,0,1,0,0,0,0,0,0,0,0,0,0,0,0,0,0,0,0,0,0,0,0,0,0,0,0,0,0,0,0,0,0,0,0,0,0,0,0,0,0,0,0,0],"id":5,"left_children":[1,3,5,7,9,11,13,15,17,19,21,23,25,27,29,-1,31,33,35,37,39,41,43,45,47,49,51,53,55,57,59,-1,-1,-1,-1,-1,-1,-1,-1,-1,-1,-1,-1,-1,-1,-1,-1,-1,-1,-1,-1,-1,-1,-1,-1,-1,-1,-1,-1,-1,-1],"loss_changes":[1.9896232E4,2.9673765E3,3.945379E3,5.7682324E2,5.070699E2,8.6586206E2,7.07876E2,2.7332031E1,8.950635E1,1.8859595E2,3.4863144E2,1.0360715E3,1.5483994E2,9.456572E2,1.9500586E2,0E0,1.0250916E1,1.038367E2,9.034473E1,2.0838583E2,5.737787E1,4.461407E2,6.231659E1,4.1721216E2,6.928242E2,1.27960365E2,2.027385E1,8.2892725E2,1.8499931E2,9.6918945E1,2.4740894E2,0E0,0E0,0E0,0E0,0E0,0E0,0E0,0E0,0E0,0E0,0E0,0E0,0E0,0E0,0E0,0E0,0E0,0E0,0E0,0E0,0E0,0E0,0E0,0E0,0E0,0E0,0E0,0E0,0E0,0E0],"parents":[2147483647,0,0,1,1,2,2,3,3,4,4,5,5,6,6,7,7,8,8,9,9,10,10,11,11,12,12,13,13,14,14,16,16,17,17,18,18,19,19,20,20,21,21,22,22,23,23,24,24,25,25,26,26,27,27,28,28,29,29,30,30],"right_children":[2,4,6,8,10,12,14,16,18,20,22,24,26,28,30,-1,32,34,36,38,40,42,44,46,48,50,52,54,56,58,60,-1,-1,-1,-1,-1,-1,-1,-1,-1,-1,-1,-1,-1,-1,-1,-1,-1,-1,-1,-1,-1,-1,-1,-1,-1,-1,-1,-1,-1,-1],"split_conditions":[8.506245E-2,-6.9304717E-1,1.101789E0,-1.1875677E0,-3.4866863E-1,1.2004536E0,1.8061986E0,-1.3473272E0,-1.0649862E0,-3.2503378E-1,2.0019178E-1,-1.8544395E-1,1.9059525E0,2.1319337E0,2.7345402E0,-4.7720265E-2,-1.0971142E0,-1.0216401E0,-9.2828864E-1,-6.218835E-1,-2.3350221E-1,-4.1368935E-1,3.4067284E-2,9.25972E-4,6.058194E-1,-8.2798934E-1,2.9092817E0,1.7365301E0,-8.528276E-1,2.761639E0,2.6645317E0,-3.3770524E-2,-4.2852383E-2,6.4771334E-3,-2.3178404E-2,-3.4431774E-2,-2.6019264E-2,5.1851077E-3,-1.4280232E-2,-2.1094887E-2,-3.7559137E-2,2.5395704E-2,-2.0584455E-3,-1.4834069E-2,-3.659105E-2,8.559973E-2,3.9135538E-2,9.562501E-3,3.2800905E-2,5.106738E-2,-3.8450123E-3,-2.1561123E-2,-3.902741E-2,6.7016184E-2,1.9801086E-2,7.291556E-2,-1.4982853E-3,8.357906E-2,6.262096E-2,3.3381633E-2,8.05527E-2],"split_indices":[14,14,14,14,14,10,14,14,11,11,11,11,10,10,10,0,11,10,14,10,10,10,10,10,14,11,10,11,11,11,14,0,0,0,0,0,0,0,0,0,0,0,0,0,0,0,0,0,0,0,0,0,0,0,0,0,0,0,0,0,0],"split_type":[0,0,0,0,0,0,0,0,0,0,0,0,0,0,0,0,0,0,0,0,0,0,0,0,0,0,0,0,0,0,0,0,0,0,0,0,0,0,0,0,0,0,0,0,0,0,0,0,0,0,0,0,0,0,0,0,0,0,0,0,0],"sum_hessian":[7.9536E4,5.0766E4,2.877E4,2.1799E4,2.8967E4,1.8177E4,1.0593E4,6.113E3,1.5686E4,1.4588E4,1.4379E4,1.5753E4,2.424E3,6.19E3,4.403E3,4.651E3,1.462E3,1.951E3,1.3735E4,9.956E3,4.632E3,1.1696E4,2.683E3,2.089E3,1.3664E4,1.641E3,7.83E2,5.084E3,1.106E3,3.277E3,1.126E3,5.01E2,9.61E2,3.62E2,1.589E3,5.087E3,8.648E3,1.647E3,8.309E3,4.021E3,6.11E2,1.737E3,9.959E3,2.299E3,3.84E2,7.62E2,1.327E3,8.52E3,5.144E3,1.13E2,1.528E3,5.39E2,2.44E2,3.858E3,1.226E3,9E1,1.016E3,2.551E3,7.26E2,6.18E2,5.08E2],"tree_param":{"num_deleted":"0","num_feature":"26","num_nodes":"61","size_leaf_vector":"1"}},{"base_weights":[-2.5838497E-3,-3.0379578E-1,7.470177E-1,-5.560078E-1,-4.264285E-2,5.1081395E-1,1.1920764E0,-4.5446083E-2,-4.5434505E-1,-8.192136E-1,-4.5330795E-3,6.232986E-1,-1.4595109E-1,1.0437162E0,1.5443982E0,-5.658576E-1,-3.5004327E-1,-6.2380767E-1,-9.1167355E-1,2.4685058E-1,-7.898421E-2,7.4230945E-1,-1.6014731E-1,-9.464436E-1,2.799505E-2,1.221797E0,3.816263E-1,1.6443642E0,1.2994667E0,-1.9778706E-2,-3.0007312E-2,-6.0585554E-4,-1.90257E-2,1.9415677E-2,-4.308483E-2,-3.865821E-2,-4.6408888E-2,2.5780255E-3,2.0758795E-2,-8.900813E-3,3.817045E-3,2.6991487E-2,5.3997755E-2,-5.0696332E-2,-1.7326828E-3,-4.1051302E-2,-4.8616983E-2,3.7136998E-2,-2.2253522E-3,6.771419E-2,1.5722318E-2,-3.983952E-2,2.835377E-2,8.446526E-2,7.295448E-2,5.1412553E-2,8.430757E-2],"categories":[],"categories_nodes":[],"categories_segments":[],"categories_sizes":[],"default_left":[1,1,0,0,0,0,0,0,0,1,0,1,0,0,0,1,1,0,0,0,0,0,0,1,0,1,0,0,0,0,0,0,0,0,0,0,0,0,0,0,0,0,0,0,0,0,0,0,0,0,0,0,0,0,0,0,0],"id":6,"left_children":[1,3,5,7,9,11,13,-1,15,17,19,21,23,25,27,29,31,33,35,37,39,41,43,45,47,49,51,53,55,-1,-1,-1,-1,-1,-1,-1,-1,-1,-1,-1,-1,-1,-1,-1,-1,-1,-1,-1,-1,-1,-1,-1,-1,-1,-1,-1,-1],"loss_changes":[1.7958574E4,3.7370767E3,2.396126E3,1.0351396E3,8.249847E2,1.1005479E3,4.1153418E2,0E0,2.6045166E2,2.2990906E1,4.9735437E2,1.1859277E3,3.0343613E2,6.5567773E2,5.5157715E1,6.2990967E1,1.1925354E2,1.0194055E2,1.3008423E0,1.9957892E2,3.1537872E2,7.542505E2,1.7975232E2,4.650879E-1,9.284358E1,5.267036E2,2.5854315E2,1.134082E1,6.989575E1,0E0,0E0,0E0,0E0,0E0,0E0,0E0,0E0,0E0,0E0,0E0,0E0,0E0,0E0,0E0,0E0,0E0,0E0,0E0,0E0,0E0,0E0,0E0,0E0,0E0,0E0,0E0,0E0],"parents":[2147483647,0,0,1,1,2,2,3,3,4,4,5,5,6,6,8,8,9,9,10,10,11,11,12,12,13,13,14,14,15,15,16,16,17,17,18,18,19,19,20,20,21,21,22,22,23,23,24,24,25,25,26,26,27,27,28,28],"right_children":[2,4,6,8,10,12,14,-1,16,18,20,22,24,26,28,30,32,34,36,38,40,42,44,46,48,50,52,54,56,-1,-1,-1,-1,-1,-1,-1,-1,-1,-1,-1,-1,-1,-1,-1,-1,-1,-1,-1,-1,-1,-1,-1,-1,-1,-1,-1,-1],"split_conditions":[3.272526E-1,-5.3216463E-1,1.3428736E0,-1.3605105E0,-1.3605105E0,1.463535E0,2.24911E0,-4.5446083E-2,-8.1906533E-1,-9.609254E-2,-5.88112E-1,1.5170847E0,-1.3605105E0,2.2214084E0,2.934858E0,-1.0971142E0,-9.283084E-1,1.223268E-1,6.552599E-2,-1.988873E-1,-8.439931E-2,8.118668E-1,-1.3605105E0,-5.3338736E-1,-1.0971142E0,2.761639E0,-1.3605105E0,3.0943472E0,3.032676E0,-1.9778706E-2,-3.0007312E-2,-6.0585554E-4,-1.90257E-2,1.9415677E-2,-4.308483E-2,-3.865821E-2,-4.6408888E-2,2.5780255E-3,2.0758795E-2,-8.900813E-3,3.817045E-3,2.6991487E-2,5.3997755E-2,-5.0696332E-2,-1.7326828E-3,-4.1051302E-2,-4.8616983E-2,3.7136998E-2,-2.2253522E-3,6.771419E-2,1.5722318E-2,-3.983952E-2,2.835377E-2,8.446526E-2,7.295448E-2,5.1412553E-2,8.430757E-2],"split_indices":[14,14,14,1,1,10,14,0,14,11,1,11,1,10,11,11,11,10,11,14,14,14,1,11,11,11,1,10,14,0,0,0,0,0,0,0,0,0,0,0,0,0,0,0,0,0,0,0,0,0,0,0,0,0,0,0,0],"split_type":[0,0,0,0,0,0,0,0,0,0,0,0,0,0,0,0,0,0,0,0,0,0,0,0,0,0,0,0,0,0,0,0,0,0,0,0,0,0,0,0,0,0,0,0,0,0,0,0,0,0,0,0,0,0,0,0,0],"sum_hessian":[7.9535E4,5.6737E4,2.2798E4,2.8862E4,2.7875E4,1.4895E4,7.903E3,6.453E3,2.2409E4,1.303E3,2.6572E4,1.2717E4,2.178E3,5.564E3,2.339E3,1.0828E4,1.1581E4,4.21E2,8.82E2,6.071E3,2.0501E4,1.104E4,1.677E3,3.88E2,1.79E3,4.384E3,1.18E3,1.657E3,6.82E2,1.817E3,9.011E3,9.58E2,1.0623E4,8E1,3.41E2,9.9E1,7.83E2,2.811E3,3.26E3,1.2519E4,7.982E3,6.903E3,4.137E3,2.14E2,1.463E3,7.2E1,3.16E2,1.64E2,1.626E3,3.825E3,5.59E2,1.6E2,1.02E3,1.327E3,3.3E2,4.03E2,2.79E2],"tree_param":{"num_deleted":"0","num_feature":"26","num_nodes":"57","size_leaf_vector":"1"}},{"base_weights":[7.016397E-5,-2.737179E-1,7.573908E-1,-5.113378E-1,-6.383428E-3,5.912286E-1,1.292382E0,-8.622274E-1,-4.1703022E-1,-7.744068E-1,3.1389896E-2,6.9734275E-1,-5.9075225E-2,1.3904015E0,8.463463E-1,-4.336662E-2,-8.391147E-1,-5.535498E-1,-3.2960138E-1,-5.290231E-1,-8.5854965E-1,2.4535537E-1,-5.906781E-2,8.027287E-1,-8.843597E-2,-8.7533027E-1,1.1443245E-1,1.4814355E0,1.1055073E0,4.7803214E-1,1.3949641E0,-4.303887E-2,-3.8245853E-2,-3.243379E-2,-2.4881536E-2,5.3311945E-3,-1.767904E-2,2.748057E-2,-4.0965285E-2,-4.377864E-2,-3.0547295E-2,5.3272033E-3,2.246038E-2,-7.8107254E-3,3.8580222E-3,2.8231531E-2,5.5988368E-2,-4.877717E-2,2.3716656E-3,-4.6732496E-2,-2.1227773E-2,4.230836E-2,1.8670034E-3,8.60294E-2,7.104536E-2,3.1538766E-2,7.551197E-2,3.7233774E-2,-4.1859712E-2,5.3217936E-2,8.037443E-2],"categories":[],"categories_nodes":[],"categories_segments":[],"categories_sizes":[],"default_left":[1,1,0,0,0,0,0,0,0,1,0,1,0,0,0,0,0,0,0,0,0,0,0,0,0,0,0,0,0,1,0,0,0,0,0,0,0,0,0,0,0,0,0,0,0,0,0,0,0,0,0,0,0,0,0,0,0,0,0,0,0],"id":7,"left_children":[1,3,5,7,9,11,13,15,17,19,21,23,25,27,29,-1,31,33,35,37,39,41,43,45,47,49,51,53,55,57,59,-1,-1,-1,-1,-1,-1,-1,-1,-1,-1,-1,-1,-1,-1,-1,-1,-1,-1,-1,-1,-1,-1,-1,-1,-1,-1,-1,-1,-1,-1],"loss_changes":[1.65078E4,3.7145625E3,1.8784834E3,1.0240884E3,7.983434E2,1.1132524E3,2.178164E2,4.5898438E-2,2.9107373E2,2.6180847E1,5.0767224E2,1.148564E3,3.207426E2,1.04825195E2,1.8220087E2,0E0,1.2977295E0,5.0343994E1,1.5566748E2,1.0440241E2,3.5072021E0,2.2049887E2,2.4399638E2,9.2248975E2,1.9783707E2,1.0218872E1,1.0534447E2,4.254541E1,1.9080249E2,1.9105157E2,2.3794067E1,0E0,0E0,0E0,0E0,0E0,0E0,0E0,0E0,0E0,0E0,0E0,0E0,0E0,0E0,0E0,0E0,0E0,0E0,0E0,0E0,0E0,0E0,0E0,0E0,0E0,0E0,0E0,0E0,0E0,0E0],"parents":[2147483647,0,0,1,1,2,2,3,3,4,4,5,5,6,6,7,7,8,8,9,9,10,10,11,11,12,12,13,13,14,14,16,16,17,17,18,18,19,19,20,20,21,21,22,22,23,23,24,24,25,25,26,26,27,27,28,28,29,29,30,30],"right_children":[2,4,6,8,10,12,14,16,18,20,22,24,26,28,30,-1,32,34,36,38,40,42,44,46,48,50,52,54,56,58,60,-1,-1,-1,-1,-1,-1,-1,-1,-1,-1,-1,-1,-1,-1,-1,-1,-1,-1,-1,-1,-1,-1,-1,-1,-1,-1,-1,-1,-1,-1],"split_conditions":[4.124436E-1,-4.8314762E-1,1.7111759E0,-1.3605105E0,-1.3605105E0,1.7819406E0,3.0943472E0,-6.495105E-1,-8.5674775E-1,-1.7886104E-1,-4.4069728E-1,1.8525537E0,-1.3605105E0,2.6080937E0,2.6645317E0,-4.336662E-2,-3.4071335E-1,-1.0579813E0,-1.0971142E0,1.9656442E-1,1E0,-3.7373148E-2,-4.7443945E-2,9.162869E-1,-1.3605105E0,7.088766E0,-1.0649862E0,1.1450847E0,2.4300578E0,1.7951517E0,3.032676E0,-4.303887E-2,-3.8245853E-2,-3.243379E-2,-2.4881536E-2,5.3311945E-3,-1.767904E-2,2.748057E-2,-4.0965285E-2,-4.377864E-2,-3.0547295E-2,5.3272033E-3,2.246038E-2,-7.8107254E-3,3.8580222E-3,2.8231531E-2,5.5988368E-2,-4.877717E-2,2.3716656E-3,-4.6732496E-2,-2.1227773E-2,4.230836E-2,1.8670034E-3,8.60294E-2,7.104536E-2,3.1538766E-2,7.551197E-2,3.7233774E-2,-4.1859712E-2,5.3217936E-2,8.037443E-2],"split_indices":[14,14,14,1,1,10,10,0,14,11,1,11,1,11,14,0,8,14,11,10,23,14,14,14,1,10,11,10,14,11,14,0,0,0,0,0,0,0,0,0,0,0,0,0,0,0,0,0,0,0,0,0,0,0,0,0,0,0,0,0,0],"split_type":[0,0,0,0,0,0,0,0,0,0,0,0,0,0,0,0,0,0,0,0,0,0,0,0,0,0,0,0,0,0,0,0,0,0,0,0,0,0,0,0,0,0,0,0,0,0,0,0,0,0,0,0,0,0,0,0,0,0,0,0,0],"sum_hessian":[7.9613E4,5.8474E4,2.1139E4,3.0957E4,2.7517E4,1.6131E4,5.008E3,6.556E3,2.4401E4,1.289E3,2.6228E4,1.3868E4,2.263E3,4.104E3,9.04E2,5.34E3,1.216E3,9.524E3,1.4877E4,3.31E2,9.58E2,7.793E3,1.8435E4,1.2228E4,1.64E3,3.96E2,1.867E3,3.107E3,9.97E2,5.42E2,3.62E2,9.33E2,2.83E2,3.522E3,6.002E3,7.75E2,1.4102E4,7E1,2.61E2,8.94E2,6.4E1,4.637E3,3.156E3,1.0761E4,7.674E3,6.985E3,5.243E3,2.17E2,1.423E3,3.49E2,4.7E1,1.77E2,1.69E3,6.22E2,2.485E3,4.6E2,5.37E2,4.51E2,9.1E1,1.44E2,2.18E2],"tree_param":{"num_deleted":"0","num_feature":"26","num_nodes":"61","size_leaf_vector":"1"}},{"base_weights":[1.1738152E-3,-3.132381E-1,5.914318E-1,-5.555311E-1,-1.2718564E-1,3.557224E-1,1.0123903E0,-4.1052714E-2,-4.60083E-1,-7.6561046E-1,-9.349089E-2,4.512152E-1,-1.1779675E-1,8.3758366E-1,1.2940915E0,-5.748968E-1,-3.968492E-1,-6.112045E-1,-8.178336E-1,-1.9975024E-1,4.2331032E-2,6.972398E-1,3.0957857E-1,-4.6319492E-2,-5.1022E-4,1.0360742E0,3.3701253E-1,1.4029539E0,1.0398998E0,-2.19465E-2,-3.0706817E-2,-5.7895565E-3,-2.1487996E-2,-3.331296E-2,1.5873132E-4,-3.82389E-2,-4.2063363E-2,1.5522398E-2,-1.1057243E-2,3.0112317E-2,4.110797E-4,-1.4225925E-2,3.992499E-2,9.556177E-3,2.485752E-2,-1.0919529E-2,9.173558E-3,6.5318316E-2,4.346953E-2,-3.588121E-2,2.3427011E-2,6.506959E-2,7.7879295E-2,3.7201636E-2,7.397551E-2],"categories":[],"categories_nodes":[],"categories_segments":[],"categories_sizes":[],"default_left":[1,1,0,0,0,1,0,0,0,1,0,0,0,0,0,1,1,0,0,0,0,0,0,0,0,0,0,0,0,0,0,0,0,0,0,0,0,0,0,0,0,0,0,0,0,0,0,0,0,0,0,0,0,0,0],"id":8,"left_children":[1,3,5,7,9,11,13,-1,15,17,19,21,23,25,27,29,31,33,35,37,39,41,43,-1,45,47,49,51,53,-1,-1,-1,-1,-1,-1,-1,-1,-1,-1,-1,-1,-1,-1,-1,-1,-1,-1,-1,-1,-1,-1,-1,-1,-1,-1],"loss_changes":[1.4805903E4,2.346437E3,2.7508193E3,5.726177E2,6.3333655E2,8.038428E2,4.8898535E2,0E0,1.2052954E2,1.14019165E1,4.0368134E2,5.152627E2,2.8299335E2,6.1010986E2,1.0394336E2,3.1235107E1,9.919153E1,1.2753937E1,7.241821E-1,1.7136542E2,2.3448518E2,5.3745386E2,2.0853961E2,0E0,1.0454409E2,1.9705371E2,2.4253082E2,3.981006E1,1.4795508E2,0E0,0E0,0E0,0E0,0E0,0E0,0E0,0E0,0E0,0E0,0E0,0E0,0E0,0E0,0E0,0E0,0E0,0E0,0E0,0E0,0E0,0E0,0E0,0E0,0E0,0E0],"parents":[2147483647,0,0,1,1,2,2,3,3,4,4,5,5,6,6,8,8,9,9,10,10,11,11,12,12,13,13,14,14,15,15,16,16,17,17,18,18,19,19,20,20,21,21,22,22,24,24,25,25,26,26,27,27,28,28],"right_children":[2,4,6,8,10,12,14,-1,16,18,20,22,24,26,28,30,32,34,36,38,40,42,44,-1,46,48,50,52,54,-1,-1,-1,-1,-1,-1,-1,-1,-1,-1,-1,-1,-1,-1,-1,-1,-1,-1,-1,-1,-1,-1,-1,-1,-1,-1],"split_conditions":[1.2923497E-1,-6.736295E-1,1.1529062E0,-1.3605105E0,-1.3605105E0,1.0398962E0,1.9150817E0,-4.1052714E-2,-9.639889E-1,-3.2503378E-1,-2.7992058E-1,-3.3512223E-1,-1.3605105E0,1.6246983E0,2.6080937E0,-1.0971142E0,-9.283084E-1,4.2196806E-3,7.4871875E-2,-1.0971142E0,-6.9383913E-1,-1.3605105E0,6.058194E-1,-4.6319492E-2,7.332622E-1,-3.8761443E-1,-1.3605105E0,2.4300578E0,2.8296854E0,-2.19465E-2,-3.0706817E-2,-5.7895565E-3,-2.1487996E-2,-3.331296E-2,1.5873132E-4,-3.82389E-2,-4.2063363E-2,1.5522398E-2,-1.1057243E-2,3.0112317E-2,4.110797E-4,-1.4225925E-2,3.992499E-2,9.556177E-3,2.485752E-2,-1.0919529E-2,9.173558E-3,6.5318316E-2,4.346953E-2,-3.588121E-2,2.3427011E-2,6.506959E-2,7.7879295E-2,3.7201636E-2,7.397551E-2],"split_indices":[14,14,14,1,1,11,14,0,14,11,14,1,1,11,11,11,11,14,11,11,11,1,14,0,14,1,1,14,14,0,0,0,0,0,0,0,0,0,0,0,0,0,0,0,0,0,0,0,0,0,0,0,0,0,0],"split_type":[0,0,0,0,0,0,0,0,0,0,0,0,0,0,0,0,0,0,0,0,0,0,0,0,0,0,0,0,0,0,0,0,0,0,0,0,0,0,0,0,0,0,0,0,0,0,0,0,0,0,0,0,0,0,0],"sum_hessian":[7.9778E4,5.2052E4,2.7726E4,2.2608E4,2.9444E4,1.7775E4,9.951E3,5.976E3,1.6632E4,1.475E3,2.7969E4,1.4792E4,2.983E3,6.143E3,3.808E3,5.904E3,1.0728E4,3.76E2,1.099E3,1.5692E4,1.2277E4,5.403E3,9.389E3,3.77E2,2.606E3,4.398E3,1.745E3,2.663E3,1.145E3,1.325E3,4.579E3,1.125E3,9.603E3,3.45E2,3.1E1,3.47E2,7.52E2,6.31E2,1.5061E4,7.04E2,1.1573E4,5.05E2,4.898E3,5.756E3,3.633E3,1.193E3,1.413E3,1.675E3,2.723E3,1.93E2,1.552E3,1.613E3,1.05E3,6.86E2,4.59E2],"tree_param":{"num_deleted":"0","num_feature":"26","num_nodes":"55","size_leaf_vector":"1"}},{"base_weights":[1.4599217E-3,-2.6080465E-1,6.4836854E-1,-4.6727479E-1,-2.45132E-2,4.4614416E-1,1.0270284E0,-3.8921922E-2,-3.823923E-1,-7.040546E-1,9.269224E-3,5.625688E-1,-2.4364479E-2,1.27789E-1,1.0742154E0,-5.015876E-1,-3.0333006E-1,-5.2257735E-1,-7.83137E-1,2.4177843E-1,-5.888318E-2,8.0885166E-1,4.1013014E-1,-8.1517774E-1,9.464934E-2,1.3721589E0,-4.2971876E-1,9.1345435E-1,1.2724757E0,-1.763121E-2,-2.6667848E-2,3.363575E-3,-1.6155386E-2,-3.1071344E-2,-9.207255E-3,-3.3206787E-2,-3.980929E-2,2.6741708E-2,6.45085E-3,-7.1927765E-3,3.1674535E-3,-1.0154887E-2,4.5076482E-2,1.34449545E-2,2.9144784E-2,-4.441166E-2,-2.317484E-2,1.0361117E-2,-1.7747808E-2,8.495877E-2,4.2709555E-2,-3.3314135E-2,7.345116E-2,5.339856E-2,2.6619589E-2,6.6478774E-2,4.799809E-2],"categories":[],"categories_nodes":[],"categories_segments":[],"categories_sizes":[],"default_left":[1,1,0,0,0,0,0,0,0,1,0,0,0,1,0,1,0,0,0,1,0,0,0,0,1,0,0,0,0,0,0,0,0,0,0,0,0,0,0,0,0,0,0,0,0,0,0,0,0,0,0,0,0,0,0,0,0],"id":9,"left_children":[1,3,5,7,9,11,13,-1,15,17,19,21,23,25,27,29,31,33,35,37,39,41,43,45,47,49,51,53,55,-1,-1,-1,-1,-1,-1,-1,-1,-1,-1,-1,-1,-1,-1,-1,-1,-1,-1,-1,-1,-1,-1,-1,-1,-1,-1,-1,-1],"loss_changes":[1.3516908E4,2.7656335E3,1.7593711E3,7.987549E2,6.0688605E2,8.2076416E2,3.3932227E2,0E0,2.238623E2,1.7559021E1,3.990973E2,4.505979E2,2.7988907E2,2.7808798E2,2.4110156E2,4.4666016E1,1.04791504E2,1.2698395E1,8.222046E-1,1.885871E2,2.0230426E2,4.307517E2,1.8091455E2,9.582581E0,1.309093E2,1.9552185E1,1.2539992E2,2.4678857E2,5.9412598E1,0E0,0E0,0E0,0E0,0E0,0E0,0E0,0E0,0E0,0E0,0E0,0E0,0E0,0E0,0E0,0E0,0E0,0E0,0E0,0E0,0E0,0E0,0E0,0E0,0E0,0E0,0E0,0E0],"parents":[2147483647,0,0,1,1,2,2,3,3,4,4,5,5,6,6,8,8,9,9,10,10,11,11,12,12,13,13,14,14,15,15,16,16,17,17,18,18,19,19,20,20,21,21,22,22,23,23,24,24,25,25,26,26,27,27,28,28],"right_children":[2,4,6,8,10,12,14,-1,16,18,20,22,24,26,28,30,32,34,36,38,40,42,44,46,48,50,52,54,56,-1,-1,-1,-1,-1,-1,-1,-1,-1,-1,-1,-1,-1,-1,-1,-1,-1,-1,-1,-1,-1,-1,-1,-1,-1,-1,-1,-1],"split_conditions":[3.272526E-1,-4.9761385E-1,1.3428736E0,-1.3605105E0,-1.3605105E0,1.2739626E0,-1.3605105E0,-3.8921922E-2,-8.5674775E-1,-6.484918E-2,-5.88112E-1,-3.081921E-1,-1.3605105E0,9.3621415E-1,1.974355E0,-1.0971142E0,-1.0971142E0,2.3894796E-2,7.4871875E-2,-5.280502E-1,-8.439931E-2,-1.3605105E0,7.531714E-1,7.207589E0,2.4694693E0,9.1448784E-1,2.536183E0,1.6788999E0,3.3881948E0,-1.763121E-2,-2.6667848E-2,3.363575E-3,-1.6155386E-2,-3.1071344E-2,-9.207255E-3,-3.3206787E-2,-3.980929E-2,2.6741708E-2,6.45085E-3,-7.1927765E-3,3.1674535E-3,-1.0154887E-2,4.5076482E-2,1.34449545E-2,2.9144784E-2,-4.441166E-2,-2.317484E-2,1.0361117E-2,-1.7747808E-2,8.495877E-2,4.2709555E-2,-3.3314135E-2,7.345116E-2,5.339856E-2,2.6619589E-2,6.6478774E-2,4.799809E-2],"split_indices":[14,14,14,1,1,11,1,0,14,11,1,1,1,11,14,11,11,14,11,11,14,1,14,11,11,11,14,11,11,0,0,0,0,0,0,0,0,0,0,0,0,0,0,0,0,0,0,0,0,0,0,0,0,0,0,0,0],"split_type":[0,0,0,0,0,0,0,0,0,0,0,0,0,0,0,0,0,0,0,0,0,0,0,0,0,0,0,0,0,0,0,0,0,0,0,0,0,0,0,0,0,0,0,0,0,0,0,0,0,0,0,0,0,0,0,0,0],"sum_hessian":[7.9668E4,5.6687E4,2.2981E4,3.0252E4,2.6435E4,1.4982E4,7.999E3,6.482E3,2.377E4,1.251E3,2.5184E4,1.201E4,2.972E3,3.99E2,7.6E3,9.477E3,1.4293E4,3.82E2,8.69E2,5.708E3,1.9476E4,4.59E3,7.42E3,3.88E2,2.584E3,1.23E2,2.76E2,4.2E3,3.4E3,1.668E3,7.809E3,7.24E2,1.3569E4,2.95E2,8.7E1,9.1E1,7.78E2,1.585E3,4.123E3,1.1489E4,7.987E3,3.85E2,4.205E3,4.084E3,3.336E3,3.2E2,6.8E1,2.067E3,5.17E2,7.4E1,4.9E1,2.46E2,3E1,2.987E3,1.213E3,2.872E3,5.28E2],"tree_param":{"num_deleted":"0","num_feature":"26","num_nodes":"57","size_leaf_vector":"1"}},{"base_weights":[1.3120736E-4,-2.3601331E-1,6.487167E-1,-4.4056934E-1,-7.381533E-3,5.073009E-1,1.1085492E0,-6.58468E-1,-3.4921205E-1,3.6297116E-2,-3.4042037E-1,6.160731E-1,3.5561774E-2,1.1997778E0,8.241987E-1,-7.352947E-1,-5.5322E-1,-1.21621825E-1,-3.7108383E-1,-7.166872E-2,2.2447908E-1,-2.786946E-1,-6.06714E-1,4.4744942E-1,8.331105E-1,2.0043027E-1,-3.001282E-1,1.0423632E0,1.3304127E0,4.8971123E-1,1.2270018E0,-3.7073158E-2,-3.4226242E-2,-2.0485194E-2,-2.9885879E-2,-9.985114E-3,1.0897108E-4,-2.2422623E-2,-1.5244372E-2,7.0564435E-3,-6.4201537E-3,2.4872566E-2,8.458322E-3,-2.2022171E-2,-8.4907E-3,-3.6918353E-2,-2.6114805E-2,3.1354614E-2,1.4254284E-2,4.8016716E-2,3.35385E-2,2.5638025E-3,2.5598723E-2,-2.7641237E-2,-4.757682E-3,5.8826204E-2,3.1377766E-2,6.263634E-2,7.1364805E-2,-1.1576876E-2,2.8605668E-2,4.8678685E-2,7.048141E-2],"categories":[],"categories_nodes":[],"categories_segments":[],"categories_sizes":[],"default_left":[1,1,0,1,1,0,0,1,1,0,0,0,1,0,0,1,1,0,0,0,0,0,0,0,0,0,0,0,0,0,0,0,0,0,0,0,0,0,0,0,0,0,0,0,0,0,0,0,0,0,0,0,0,0,0,0,0,0,0,0,0,0,0],"id":10,"left_children":[1,3,5,7,9,11,13,15,17,19,21,23,25,27,29,31,33,35,37,39,41,43,45,47,49,51,53,55,57,59,61,-1,-1,-1,-1,-1,-1,-1,-1,-1,-1,-1,-1,-1,-1,-1,-1,-1,-1,-1,-1,-1,-1,-1,-1,-1,-1,-1,-1,-1,-1,-1,-1],"loss_changes":[1.2183411E4,2.7272732E3,1.3801025E3,6.1245654E2,4.00599E2,8.332866E2,1.2853467E2,7.310156E1,1.07913574E2,4.9465924E2,5.231482E1,4.8260645E2,1.685294E2,7.630322E1,1.6323401E2,1.1369629E0,2.4277832E1,1.8395704E1,1.01197754E2,1.8679846E2,1.3393289E2,4.5608932E1,6.2826843E0,2.1650659E2,1.185061E2,9.486167E1,5.189914E1,9.487012E1,1.3723877E1,3.9714462E1,2.4129333E1,0E0,0E0,0E0,0E0,0E0,0E0,0E0,0E0,0E0,0E0,0E0,0E0,0E0,0E0,0E0,0E0,0E0,0E0,0E0,0E0,0E0,0E0,0E0,0E0,0E0,0E0,0E0,0E0,0E0,0E0,0E0,0E0],"parents":[2147483647,0,0,1,1,2,2,3,3,4,4,5,5,6,6,7,7,8,8,9,9,10,10,11,11,12,12,13,13,14,14,15,15,16,16,17,17,18,18,19,19,20,20,21,21,22,22,23,23,24,24,25,25,26,26,27,27,28,28,29,29,30,30],"right_children":[2,4,6,8,10,12,14,16,18,20,22,24,26,28,30,32,34,36,38,40,42,44,46,48,50,52,54,56,58,60,62,-1,-1,-1,-1,-1,-1,-1,-1,-1,-1,-1,-1,-1,-1,-1,-1,-1,-1,-1,-1,-1,-1,-1,-1,-1,-1,-1,-1,-1,-1,-1,-1],"split_conditions":[4.124436E-1,-4.8314762E-1,1.7111759E0,-1.0346402E0,4.7288418E-1,1.5650989E0,2.761639E0,-1.2741727E0,-1.0649862E0,-3.7373148E-2,1.2739626E0,9.373105E-1,2.4694693E0,2.097928E0,2.536183E0,-1.3473272E0,-1.0971142E0,-7.279834E-1,-7.488863E-1,-4.964771E-1,-3.78797E-1,4.4960674E-2,1.1791276E-1,3.81594E-1,8.220716E-1,1.2525918E0,1.101789E0,1.7365301E0,2.536183E0,-1.657617E0,3.032676E0,-3.7073158E-2,-3.4226242E-2,-2.0485194E-2,-2.9885879E-2,-9.985114E-3,1.0897108E-4,-2.2422623E-2,-1.5244372E-2,7.0564435E-3,-6.4201537E-3,2.4872566E-2,8.458322E-3,-2.2022171E-2,-8.4907E-3,-3.6918353E-2,-2.6114805E-2,3.1354614E-2,1.4254284E-2,4.8016716E-2,3.35385E-2,2.5638025E-3,2.5598723E-2,-2.7641237E-2,-4.757682E-3,5.8826204E-2,3.1377766E-2,6.263634E-2,7.1364805E-2,-1.1576876E-2,2.8605668E-2,4.8678685E-2,7.048141E-2],"split_indices":[14,14,14,14,11,11,11,14,11,14,11,14,11,14,14,14,11,14,14,11,11,14,14,11,11,14,14,11,14,0,14,0,0,0,0,0,0,0,0,0,0,0,0,0,0,0,0,0,0,0,0,0,0,0,0,0,0,0,0,0,0,0,0],"split_type":[0,0,0,0,0,0,0,0,0,0,0,0,0,0,0,0,0,0,0,0,0,0,0,0,0,0,0,0,0,0,0,0,0,0,0,0,0,0,0,0,0,0,0,0,0,0,0,0,0,0,0,0,0,0,0,0,0,0,0,0,0,0,0],"sum_hessian":[7.9545E4,5.8314E4,2.1231E4,3.0777E4,2.7537E4,1.6239E4,4.992E3,9.09E3,2.1687E4,2.4345E4,3.192E3,1.3196E4,3.043E3,3.777E3,1.215E3,5.251E3,3.839E3,1.902E3,1.9785E4,1.547E4,8.875E3,2.593E3,5.99E2,7.428E3,5.768E3,2.041E3,1.002E3,1.717E3,2.06E3,6.65E2,5.5E2,4.67E3,5.81E2,9.11E2,2.928E3,1.166E3,7.36E2,9.12E3,1.0665E4,3.256E3,1.2214E4,1.494E3,7.381E3,1.042E3,1.551E3,2.31E2,3.68E2,3.525E3,3.903E3,3.231E3,2.537E3,1.381E3,6.6E2,4.48E2,5.54E2,1.296E3,4.21E2,1.151E3,9.09E2,6.8E1,5.97E2,2.33E2,3.17E2],"tree_param":{"num_deleted":"0","num_feature":"26","num_nodes":"63","size_leaf_vector":"1"}},{"base_weights":[3.2385255E-4,-1.696542E-1,3.3462355E-1,-3.552265E-1,-3.9617915E-2,1.16870105E-1,5.008671E-1,-5.2936816E-1,-2.5966272E-1,-1.3468482E-1,7.425847E-2,-5.603335E-3,1.854065E-1,2.955971E-1,6.5873635E-1,-6.268658E-1,-3.774605E-1,-6.853807E-2,-2.8855294E-1,-2.0433271E-1,-6.587511E-2,3.553819E-3,1.8898486E-1,-5.1406596E-2,8.306357E-2,1.0279254E-1,2.5642627E-1,1.8743442E-1,3.790372E-1,4.6023548E-1,7.667933E-1,-3.2373156E-2,-2.362406E-2,-2.0979585E-2,-9.662147E-3,-9.109937E-3,4.545688E-3,-1.705991E-2,-9.897166E-3,-3.9050118E-3,-1.1134407E-2,-6.111017E-3,-2.1554886E-3,-1.9658965E-3,3.4358178E-3,1.9158913E-2,4.8752055E-3,-8.597999E-3,-7.3385116E-4,3.2452599E-3,2.2385074E-2,1.1683293E-3,8.48785E-3,1.0203355E-2,2.0878904E-2,4.8178416E-3,1.4374475E-2,1.6821753E-2,2.3301225E-2,2.4250768E-2,6.3788863E-3,3.1511527E-2,4.2718705E-2],"categories":[],"categories_nodes":[],"categories_segments":[],"categories_sizes":[],"default_left":[1,0,0,0,0,0,0,0,0,0,1,0,0,0,0,0,1,0,1,0,0,1,1,0,0,0,0,0,0,0,1,0,0,0,0,0,0,0,0,0,0,0,0,0,0,0,0,0,0,0,0,0,0,0,0,0,0,0,0,0,0,0,0],"id":11,"left_children":[1,3,5,7,9,11,13,15,17,19,21,23,25,27,29,31,33,35,37,39,41,43,45,47,49,51,53,55,57,59,61,-1,-1,-1,-1,-1,-1,-1,-1,-1,-1,-1,-1,-1,-1,-1,-1,-1,-1,-1,-1,-1,-1,-1,-1,-1,-1,-1,-1,-1,-1,-1,-1],"loss_changes":[4.5086694E3,1.2692834E3,9.681135E2,3.6052002E2,3.3484344E2,9.720227E1,4.9127197E2,1.1347949E2,7.725543E1,8.077289E1,1.1415512E2,1.6882755E1,4.3537796E1,5.9449524E1,1.8351147E2,1.4560059E1,2.3233917E1,3.33455E1,5.79234E1,1.9392517E1,1.0873463E1,2.4329645E1,9.52894E1,1.2134277E1,9.346604E0,1.8260506E1,3.359839E1,2.6162422E1,1.3636353E1,2.48656E1,6.582886E1,0E0,0E0,0E0,0E0,0E0,0E0,0E0,0E0,0E0,0E0,0E0,0E0,0E0,0E0,0E0,0E0,0E0,0E0,0E0,0E0,0E0,0E0,0E0,0E0,0E0,0E0,0E0,0E0,0E0,0E0,0E0,0E0],"parents":[2147483647,0,0,1,1,2,2,3,3,4,4,5,5,6,6,7,7,8,8,9,9,10,10,11,11,12,12,13,13,14,14,15,15,16,16,17,17,18,18,19,19,20,20,21,21,22,22,23,23,24,24,25,25,26,26,27,27,28,28,29,29,30,30],"right_children":[2,4,6,8,10,12,14,16,18,20,22,24,26,28,30,32,34,36,38,40,42,44,46,48,50,52,54,56,58,60,62,-1,-1,-1,-1,-1,-1,-1,-1,-1,-1,-1,-1,-1,-1,-1,-1,-1,-1,-1,-1,-1,-1,-1,-1,-1,-1,-1,-1,-1,-1,-1,-1],"split_conditions":[3.8089294E-2,-5.748418E-1,2.5189486E-1,-8.8243043E-1,-1.2976068E-1,-2.146918E-1,5.3293735E-1,-9.342606E-1,-1.091121E0,-4.5789853E-1,9.1477156E-2,-2.372871E-1,1.24803014E-1,-6.6273145E-2,8.250291E-1,-9.7892964E-1,-6.28441E-1,-3.464175E-2,-5.9116995E-1,-1.100538E0,-3.7395406E-1,-2.3108028E-1,-9.7892964E-1,-6.45621E-1,1E0,-2.5685108E-1,1.5262581E0,8.4113754E-2,6.251281E-1,2.7345402E0,9.92773E-1,-3.2373156E-2,-2.362406E-2,-2.0979585E-2,-9.662147E-3,-9.109937E-3,4.545688E-3,-1.705991E-2,-9.897166E-3,-3.9050118E-3,-1.1134407E-2,-6.111017E-3,-2.1554886E-3,-1.9658965E-3,3.4358178E-3,1.9158913E-2,4.8752055E-3,-8.597999E-3,-7.3385116E-4,3.2452599E-3,2.2385074E-2,1.1683293E-3,8.48785E-3,1.0203355E-2,2.0878904E-2,4.8178416E-3,1.4374475E-2,1.6821753E-2,2.3301225E-2,2.4250768E-2,6.3788863E-3,3.1511527E-2,4.2718705E-2],"split_indices":[12,10,13,11,13,10,10,13,10,12,10,13,11,10,12,12,12,13,12,12,10,11,12,11,22,13,6,11,11,10,13,0,0,0,0,0,0,0,0,0,0,0,0,0,0,0,0,0,0,0,0,0,0,0,0,0,0,0,0,0,0,0,0],"split_type":[0,0,0,0,0,0,0,0,0,0,0,0,0,0,0,0,0,0,0,0,0,0,0,0,0,0,0,0,0,0,0,0,0,0,0,0,0,0,0,0,0,0,0,0,0,0,0,0,0,0,0,0,0,0,0,0,0,0,0,0,0,0,0],"sum_hessian":[7.9343E4,5.2599E4,2.6744E4,2.1671E4,3.0928E4,1.1579E4,1.5165E4,7.677E3,1.3994E4,1.6856E4,1.4072E4,4.155E3,7.424E3,6.594E3,8.571E3,4.674E3,3.003E3,1.838E3,1.2156E4,8.376E3,8.48E3,8.707E3,5.365E3,2.74E3,1.415E3,3.433E3,3.991E3,2.873E3,3.721E3,3.023E3,5.548E3,4.121E3,5.53E2,2.443E3,5.6E2,1.073E3,7.65E2,7.687E3,4.469E3,1.064E3,7.312E3,2.439E3,6.041E3,5.252E3,3.455E3,1.717E3,3.648E3,6.39E2,2.101E3,1.349E3,6.6E1,1.571E3,1.862E3,3.014E3,9.77E2,1.505E3,1.368E3,2.501E3,1.22E3,2.813E3,2.1E2,2.171E3,3.377E3],"tree_param":{"num_deleted":"0","num_feature":"26","num_nodes":"63","size_leaf_vector":"1"}},{"base_weights":[4.8690155E-4,-2.102167E-1,6.156381E-1,-3.9107156E-1,1.3966301E-2,4.5580205E-1,9.590254E-1,-6.869406E-1,-3.1580332E-1,-6.5537137E-1,4.6290662E-2,5.817394E-1,-1.2503971E-1,1.069474E0,6.1813086E-1,-6.7683834E-1,-3.790067E-2,-4.1074833E-1,-2.3088247E-1,-4.2486048E-1,-7.881184E-1,2.1421051E-1,-5.1558528E-2,1.2147452E0,4.435435E-1,-8.556463E-1,1.6064387E-2,1.413771E0,9.879759E-1,2.6980433E-1,1.1298581E0,-3.3452585E-2,-3.6628593E-2,-1.096329E-2,-2.183949E-2,8.4980335E-3,-1.2661204E-2,4.5242608E-2,-3.325951E-2,-4.0343013E-2,-2.5048718E-2,2.6128853E-2,7.027509E-3,-6.4071016E-3,2.5049406E-3,7.891073E-2,4.173976E-2,2.6757414E-2,-1.104306E-2,-4.4956658E-2,-2.368472E-2,2.0026973E-2,-5.9012272E-3,7.74816E-2,6.301325E-2,3.6532637E-2,5.935202E-2,2.5446896E-2,-4.3386266E-2,4.516798E-2,6.5925285E-2],"categories":[],"categories_nodes":[],"categories_segments":[],"categories_sizes":[],"default_left":[1,1,0,0,0,0,0,0,0,1,0,0,0,0,0,0,0,1,1,0,0,1,0,0,1,0,1,0,0,1,0,0,0,0,0,0,0,0,0,0,0,0,0,0,0,0,0,0,0,0,0,0,0,0,0,0,0,0,0,0,0],"id":12,"left_children":[1,3,5,7,9,11,13,15,17,19,21,23,25,27,29,31,-1,33,35,37,39,41,43,45,47,49,51,53,55,57,59,-1,-1,-1,-1,-1,-1,-1,-1,-1,-1,-1,-1,-1,-1,-1,-1,-1,-1,-1,-1,-1,-1,-1,-1,-1,-1,-1,-1,-1,-1],"loss_changes":[1.0319523E4,2.4044622E3,1.1144556E3,7.307588E2,5.729709E2,1.0141465E3,2.4222803E2,4.265869E0,2.1090063E2,3.6996704E1,4.1508646E2,9.961074E2,2.5475302E2,1.3528125E2,2.815055E2,2.0429688E0,0E0,6.1507324E1,1.2377185E2,1.4376904E2,3.7557373E0,2.1119302E2,1.2427499E2,2.8054492E2,5.693666E2,6.218048E0,1.06866844E2,1.7442627E1,2.0105737E2,2.5668594E2,2.615503E1,0E0,0E0,0E0,0E0,0E0,0E0,0E0,0E0,0E0,0E0,0E0,0E0,0E0,0E0,0E0,0E0,0E0,0E0,0E0,0E0,0E0,0E0,0E0,0E0,0E0,0E0,0E0,0E0,0E0,0E0],"parents":[2147483647,0,0,1,1,2,2,3,3,4,4,5,5,6,6,7,7,8,8,9,9,10,10,11,11,12,12,13,13,14,14,15,15,17,17,18,18,19,19,20,20,21,21,22,22,23,23,24,24,25,25,26,26,27,27,28,28,29,29,30,30],"right_children":[2,4,6,8,10,12,14,16,18,20,22,24,26,28,30,32,-1,34,36,38,40,42,44,46,48,50,52,54,56,58,60,-1,-1,-1,-1,-1,-1,-1,-1,-1,-1,-1,-1,-1,-1,-1,-1,-1,-1,-1,-1,-1,-1,-1,-1,-1,-1,-1,-1,-1,-1],"split_conditions":[4.596932E-1,-4.3505046E-1,1.5041424E0,-1.3605105E0,-1.3605105E0,1.463535E0,2.5853295E0,-3.186063E-1,-7.755305E-1,9.1477156E-2,-2.918561E-1,1.7771131E-1,-1.3605105E0,1.0146387E0,2.536183E0,-3.38244E-1,-3.790067E-2,-1.091121E0,-1.0216401E0,8.4113754E-2,1E0,-5.3277814E-1,-7.327634E-3,4.3944573E-1,2.0632174E0,7.088766E0,-9.422748E-1,1.4227983E0,1.974355E0,1.7365301E0,3.032676E0,-3.3452585E-2,-3.6628593E-2,-1.096329E-2,-2.183949E-2,8.4980335E-3,-1.2661204E-2,4.5242608E-2,-3.325951E-2,-4.0343013E-2,-2.5048718E-2,2.6128853E-2,7.027509E-3,-6.4071016E-3,2.5049406E-3,7.891073E-2,4.173976E-2,2.6757414E-2,-1.104306E-2,-4.4956658E-2,-2.368472E-2,2.0026973E-2,-5.9012272E-3,7.74816E-2,6.301325E-2,3.6532637E-2,5.935202E-2,2.5446896E-2,-4.3386266E-2,4.516798E-2,6.5925285E-2],"split_indices":[14,14,14,1,1,10,10,10,14,10,1,11,1,11,14,11,0,10,10,11,23,10,14,10,11,10,11,10,14,11,14,0,0,0,0,0,0,0,0,0,0,0,0,0,0,0,0,0,0,0,0,0,0,0,0,0,0,0,0,0,0],"split_type":[0,0,0,0,0,0,0,0,0,0,0,0,0,0,0,0,0,0,0,0,0,0,0,0,0,0,0,0,0,0,0,0,0,0,0,0,0,0,0,0,0,0,0,0,0,0,0,0,0,0,0,0,0,0,0,0,0,0,0,0,0],"sum_hessian":[7.9615E4,5.9303E4,2.0312E4,3.2823E4,2.648E4,1.3862E4,6.45E3,6.655E3,2.6168E4,1.219E3,2.5261E4,1.1392E4,2.47E3,4.87E3,1.58E3,5.836E3,8.19E2,1.2353E4,1.3815E4,4.47E2,7.72E2,9.3E3,1.5961E4,2.04E3,9.352E3,3.99E2,2.071E3,9.29E2,3.941E3,9.41E2,6.39E2,5.132E3,7.04E2,1.48E3,1.0873E4,7.29E2,1.3086E4,6.8E1,3.79E2,7.23E2,4.9E1,1.792E3,7.508E3,9.103E3,6.858E3,1.041E3,9.99E2,8.219E3,1.133E3,3.57E2,4.2E1,5.35E2,1.536E3,4.88E2,4.41E2,1.721E3,2.22E3,7.78E2,1.63E2,2.93E2,3.46E2],"tree_param":{"num_deleted":"0","num_feature":"26","num_nodes":"61","size_leaf_vector":"1"}},{"base_weights":[-7.2330865E-4,-1.5765657E-1,3.0408335E-1,-3.2871908E-1,-5.422613E-2,1.0591548E-1,4.5768806E-1,-4.5944947E-1,-2.2574343E-1,-1.2857673E-1,4.56161E-3,4.373242E-2,2.0771548E-1,3.2091546E-1,5.7260114E-1,-5.080543E-1,-3.6228245E-1,-2.904958E-1,-1.5400447E-1,-1.6966309E-1,2.2871736E-2,-6.458454E-2,4.7570713E-2,1.7058876E-1,1.5400432E-2,1.6733186E-1,2.6878792E-1,2.2280046E-1,3.5722613E-1,4.715455E-1,6.811867E-1,-2.1704007E-2,-2.6973171E-2,-1.9721108E-2,-1.6268788E-2,-1.5635638E-2,-1.3127147E-2,-9.756026E-3,-5.766305E-3,-1.0139569E-2,-6.8158656E-3,7.1030147E-3,-2.8993096E-3,-4.3540993E-3,-1.5723885E-3,3.5314512E-4,5.0844545E-3,2.2241569E-3,1.3565567E-2,-1.5487919E-3,4.3339976E-3,7.2268336E-3,1.2861947E-2,1.2180128E-2,2.125882E-2,5.914941E-3,1.39820725E-2,1.48777515E-2,2.013956E-2,2.0377817E-2,2.8879121E-2,2.3404237E-2,3.643961E-2],"categories":[],"categories_nodes":[],"categories_segments":[],"categories_sizes":[],"default_left":[1,0,0,0,0,0,0,0,0,1,0,0,0,0,1,0,0,0,0,0,0,0,1,0,0,0,0,0,1,0,0,0,0,0,0,0,0,0,0,0,0,0,0,0,0,0,0,0,0,0,0,0,0,0,0,0,0,0,0,0,0,0,0],"id":13,"left_children":[1,3,5,7,9,11,13,15,17,19,21,23,25,27,29,31,33,35,37,39,41,43,45,47,49,51,53,55,57,59,61,-1,-1,-1,-1,-1,-1,-1,-1,-1,-1,-1,-1,-1,-1,-1,-1,-1,-1,-1,-1,-1,-1,-1,-1,-1,-1,-1,-1,-1,-1,-1,-1],"loss_changes":[3.7957954E3,9.267982E2,8.209053E2,2.656101E2,1.426931E2,7.454843E1,2.38604E2,4.0885376E1,5.125305E1,8.970076E1,5.422347E1,2.6280968E1,1.0969635E1,2.464148E1,9.026245E1,1.3228027E1,3.3151245E0,3.5217285E0,8.3122635E0,1.2498413E1,2.9662334E1,5.209749E0,2.4641994E1,1.694468E1,1.9767336E1,5.47789E0,6.891556E0,1.1116257E1,1.3645935E1,2.8798462E1,4.000476E1,0E0,0E0,0E0,0E0,0E0,0E0,0E0,0E0,0E0,0E0,0E0,0E0,0E0,0E0,0E0,0E0,0E0,0E0,0E0,0E0,0E0,0E0,0E0,0E0,0E0,0E0,0E0,0E0,0E0,0E0,0E0,0E0],"parents":[2147483647,0,0,1,1,2,2,3,3,4,4,5,5,6,6,7,7,8,8,9,9,10,10,11,11,12,12,13,13,14,14,15,15,16,16,17,17,18,18,19,19,20,20,21,21,22,22,23,23,24,24,25,25,26,26,27,27,28,28,29,29,30,30],"right_children":[2,4,6,8,10,12,14,16,18,20,22,24,26,28,30,32,34,36,38,40,42,44,46,48,50,52,54,56,58,60,62,-1,-1,-1,-1,-1,-1,-1,-1,-1,-1,-1,-1,-1,-1,-1,-1,-1,-1,-1,-1,-1,-1,-1,-1,-1,-1,-1,-1,-1,-1,-1,-1],"split_conditions":[2.995221E-2,-5.677131E-1,2.5189486E-1,-7.9342216E-1,-4.416377E-1,-1.2268275E-1,8.02235E-1,-9.2158914E-1,-5.4330635E-1,2.7545866E-1,-1.1438815E-1,-1.0364292E0,5.725429E-1,-5.0307935E-1,1.1018595E0,-3.692677E-1,-7.636051E-1,-6.669931E-1,-3.6108595E-1,-6.61606E-1,-1.0011232E0,-3.0796158E-1,-2.6064152E-1,-3.6097774E-1,-3.2661614E-1,1.8952286E0,2.1258352E0,2.7185938E-1,5.56415E-1,3.9628616E-1,-4.5695803E-1,-2.1704007E-2,-2.6973171E-2,-1.9721108E-2,-1.6268788E-2,-1.5635638E-2,-1.3127147E-2,-9.756026E-3,-5.766305E-3,-1.0139569E-2,-6.8158656E-3,7.1030147E-3,-2.8993096E-3,-4.3540993E-3,-1.5723885E-3,3.5314512E-4,5.0844545E-3,2.2241569E-3,1.3565567E-2,-1.5487919E-3,4.3339976E-3,7.2268336E-3,1.2861947E-2,1.2180128E-2,2.125882E-2,5.914941E-3,1.39820725E-2,1.48777515E-2,2.013956E-2,2.0377817E-2,2.8879121E-2,2.3404237E-2,3.643961E-2],"split_indices":[12,13,13,12,12,13,12,13,12,13,13,13,12,6,13,8,13,12,12,12,12,13,12,8,13,6,6,12,13,6,6,0,0,0,0,0,0,0,0,0,0,0,0,0,0,0,0,0,0,0,0,0,0,0,0,0,0,0,0,0,0,0,0],"split_type":[0,0,0,0,0,0,0,0,0,0,0,0,0,0,0,0,0,0,0,0,0,0,0,0,0,0,0,0,0,0,0,0,0,0,0,0,0,0,0,0,0,0,0,0,0,0,0,0,0,0,0,0,0,0,0,0,0,0,0,0,0,0,0],"sum_hessian":[7.9351E4,5.2382E4,2.6969E4,1.9737E4,3.2645E4,1.1777E4,1.5192E4,8.695E3,1.1042E4,1.4414E4,1.8231E4,7.312E3,4.465E3,6.938E3,8.254E3,5.793E3,2.902E3,5.802E3,5.24E3,1.1338E4,3.076E3,6.991E3,1.124E4,1.334E3,5.978E3,2.69E3,1.775E3,1.876E3,5.062E3,4.278E3,3.976E3,1.731E3,4.062E3,1.546E3,1.356E3,3.227E3,2.575E3,2.538E3,2.702E3,5.685E3,5.653E3,1.243E3,1.833E3,4.163E3,2.828E3,6.429E3,4.811E3,5.93E2,7.41E2,3.622E3,2.356E3,2.148E3,5.42E2,1.531E3,2.44E2,6.62E2,1.214E3,2.195E3,2.867E3,2.671E3,1.607E3,7.28E2,3.248E3],"tree_param":{"num_deleted":"0","num_feature":"26","num_nodes":"63","size_leaf_vector":"1"}},{"base_weights":[7.3366245E-4,-5.9452456E-1,7.614687E-2,-6.421605E-1,-5.031607E-1,-6.510169E-2,4.0737855E-1,-6.2069255E-1,-8.3327174E-1,-5.6406707E-1,4.3611214E-1,2.505494E-1,-1.6129075E-1,2.3107749E-1,5.8872795E-1,-6.096028E-1,-6.7161345E-1,-8.842455E-1,-6.2540615E-1,-5.829136E-1,2.9186206E-3,1.4673755E-1,7.495785E-1,1.3747217E-1,5.037496E-1,-2.8362757E-1,-5.433528E-2,5.922903E-1,1.183717E-1,4.0828913E-1,7.104811E-1,-3.0857796E-2,-2.6608272E-2,-3.475439E-2,-3.1900868E-2,-3.8971853E-2,-4.6867482E-2,-3.6691654E-2,6.1487384E-2,-3.0027775E-2,-1.3033683E-2,-1.9885255E-2,1.6707374E-2,2.5556097E-2,-1.1775716E-2,1.548431E-2,5.4764926E-2,2.219788E-3,1.4878817E-2,3.3079904E-2,1.8168423E-2,-9.578536E-3,-1.7767688E-2,3.1233418E-3,-6.424594E-3,3.7539627E-2,2.2814026E-2,5.049863E-4,1.3379447E-2,3.5221845E-2,1.3392732E-2,2.6132992E-2,3.934249E-2],"categories":[],"categories_nodes":[],"categories_segments":[],"categories_sizes":[],"default_left":[0,0,1,1,0,0,0,1,0,0,0,0,0,0,0,0,0,0,0,0,1,0,0,0,0,0,0,0,0,0,0,0,0,0,0,0,0,0,0,0,0,0,0,0,0,0,0,0,0,0,0,0,0,0,0,0,0,0,0,0,0,0,0],"id":14,"left_children":[1,3,5,7,9,11,13,15,17,19,21,23,25,27,29,31,33,35,37,39,41,43,45,47,49,51,53,55,57,59,61,-1,-1,-1,-1,-1,-1,-1,-1,-1,-1,-1,-1,-1,-1,-1,-1,-1,-1,-1,-1,-1,-1,-1,-1,-1,-1,-1,-1,-1,-1,-1,-1],"loss_changes":[3.5802285E3,3.8707764E1,3.3118672E3,2.36521E1,1.7633105E2,1.506794E3,6.764575E2,2.583374E0,5.7196655E0,3.0894104E1,1.694334E1,3.3179462E2,4.976701E2,4.3683783E2,2.2886865E2,2.2233887E0,2.9632568E-1,1.9019775E0,2.5040264E1,1.5749878E1,1.2606516E1,1.3909752E1,1.3347958E1,1.1941077E2,7.904437E1,1.1708032E2,1.7579617E2,5.4673096E1,1.321699E2,1.7469464E2,8.8906494E1,0E0,0E0,0E0,0E0,0E0,0E0,0E0,0E0,0E0,0E0,0E0,0E0,0E0,0E0,0E0,0E0,0E0,0E0,0E0,0E0,0E0,0E0,0E0,0E0,0E0,0E0,0E0,0E0,0E0,0E0,0E0,0E0],"parents":[2147483647,0,0,1,1,2,2,3,3,4,4,5,5,6,6,7,7,8,8,9,9,10,10,11,11,12,12,13,13,14,14,15,15,16,16,17,17,18,18,19,19,20,20,21,21,22,22,23,23,24,24,25,25,26,26,27,27,28,28,29,29,30,30],"right_children":[2,4,6,8,10,12,14,16,18,20,22,24,26,28,30,32,34,36,38,40,42,44,46,48,50,52,54,56,58,60,62,-1,-1,-1,-1,-1,-1,-1,-1,-1,-1,-1,-1,-1,-1,-1,-1,-1,-1,-1,-1,-1,-1,-1,-1,-1,-1,-1,-1,-1,-1,-1,-1],"split_conditions":[-1.3605105E0,-1.1141742E0,1.906633E-1,6.0839516E-1,9.0362054E-1,-5.88112E-1,5.246854E-1,-4.3336746E-1,-1.6561664E0,1E0,2.1258352E0,-3.464175E-2,-3.4529954E-1,-5.4119444E-1,6.6144854E-1,-1.657617E0,1E0,5.0796044E-1,5.0376352E-2,7.314572E0,-5.9116995E-1,3.1830537E-1,4.1065106E-1,-4.290629E-1,-8.9213276E-1,9.393227E-2,1.1094482E-1,-8.6731523E-1,6.253669E-2,-2.2161849E-1,8.929136E-1,-3.0857796E-2,-2.6608272E-2,-3.475439E-2,-3.1900868E-2,-3.8971853E-2,-4.6867482E-2,-3.6691654E-2,6.1487384E-2,-3.0027775E-2,-1.3033683E-2,-1.9885255E-2,1.6707374E-2,2.5556097E-2,-1.1775716E-2,1.548431E-2,5.4764926E-2,2.219788E-3,1.4878817E-2,3.3079904E-2,1.8168423E-2,-9.578536E-3,-1.7767688E-2,3.1233418E-3,-6.424594E-3,3.7539627E-2,2.2814026E-2,5.049863E-4,1.3379447E-2,3.5221845E-2,1.3392732E-2,2.6132992E-2,3.934249E-2],"split_indices":[1,0,12,11,6,1,13,13,0,23,6,13,13,1,11,0,21,13,6,12,12,11,12,12,1,1,1,1,13,1,12,0,0,0,0,0,0,0,0,0,0,0,0,0,0,0,0,0,0,0,0,0,0,0,0,0,0,0,0,0,0,0,0],"split_type":[0,0,0,0,0,0,0,0,0,0,0,0,0,0,0,0,0,0,0,0,0,0,0,0,0,0,0,0,0,0,0,0,0,0,0,0,0,0,0,0,0,0,0,0,0,0,0,0,0,0,0,0,0,0,0,0,0,0,0,0,0,0,0],"sum_hessian":[7.9753E4,8.967E3,7.0786E4,5.89E3,3.077E3,4.9625E4,2.1161E4,5.299E3,5.91E2,2.89E3,1.87E2,1.159E4,3.8035E4,1.0731E4,1.043E4,4.362E3,9.37E2,4.72E2,1.19E2,2.797E3,9.3E1,9.8E1,8.9E1,8.013E3,3.577E3,1.7741E4,2.0294E4,2.551E3,8.18E3,4.204E3,6.226E3,3.968E3,3.94E2,5.4E2,3.97E2,1.64E2,3.08E2,1.13E2,6E0,2.651E3,1.46E2,4.2E1,5.1E1,5E1,4.8E1,4E1,4.9E1,5.068E3,2.945E3,1.682E3,1.895E3,7.771E3,9.97E3,7.881E3,1.2413E4,1.176E3,1.375E3,4.741E3,3.439E3,1.351E3,2.853E3,1.802E3,4.424E3],"tree_param":{"num_deleted":"0","num_feature":"26","num_nodes":"63","size_leaf_vector":"1"}},{"base_weights":[-6.139559E-4,-1.8295823E-1,5.7748586E-1,-3.462485E-1,2.346942E-2,4.477485E-1,9.2026544E-1,-6.086082E-1,-2.8129688E-1,-6.039965E-1,5.6174725E-2,5.8951765E-1,1.3156281E-1,2.4550784E-1,9.534343E-1,-5.914347E-1,-6.6337943E-1,-3.653217E-1,-2.0000832E-1,-3.9450192E-1,-7.160632E-1,3.0598307E-1,-3.2662125E-3,8.850721E-1,4.1717222E-1,-7.535952E-1,2.1825607E-1,1.1703333E0,-6.664844E-1,1.2269408E0,8.778877E-1,-2.9286807E-2,-3.237861E-2,-3.221141E-2,-3.4016952E-2,-2.3040993E-2,-1.6221248E-2,-3.051986E-5,-1.1958894E-2,-1.371703E-2,-3.0229086E-2,-3.3253133E-2,-3.757423E-2,3.0083483E-2,8.562839E-3,2.7017979E-2,-9.3648816E-4,8.021096E-3,4.7697537E-2,1.4944039E-2,2.767601E-2,-4.274699E-2,-3.854906E-3,7.9010206E-4,1.999828E-2,7.072943E-2,3.796069E-2,-5.061015E-2,6.577676E-2,6.603185E-2,5.6010436E-2,3.8734164E-2,5.392166E-2],"categories":[],"categories_nodes":[],"categories_segments":[],"categories_sizes":[],"default_left":[1,1,0,0,0,0,0,0,0,1,0,0,0,1,0,0,0,0,1,1,0,1,0,0,0,0,0,0,0,0,0,0,0,0,0,0,0,0,0,0,0,0,0,0,0,0,0,0,0,0,0,0,0,0,0,0,0,0,0,0,0,0,0],"id":15,"left_children":[1,3,5,7,9,11,13,15,17,19,21,23,25,27,29,31,33,35,37,39,41,43,45,47,49,51,53,55,57,59,61,-1,-1,-1,-1,-1,-1,-1,-1,-1,-1,-1,-1,-1,-1,-1,-1,-1,-1,-1,-1,-1,-1,-1,-1,-1,-1,-1,-1,-1,-1,-1,-1],"loss_changes":[8.396161E3,2.0410387E3,8.489458E2,5.759407E2,5.4886E2,6.210674E2,1.17109375E2,5.916992E0,1.8503394E2,3.0825012E1,3.7745856E2,4.8694946E2,3.2944394E2,2.0910812E2,1.0217285E2,1.2574463E0,7.910156E-2,5.1892212E1,1.0760272E2,1.15471115E1,1.0574341E0,1.9453937E2,1.7263522E2,1.7568994E2,9.733313E1,2.6192307E1,1.4379732E2,1.1277435E1,8.6984215E1,9.311035E0,8.0276855E1,0E0,0E0,0E0,0E0,0E0,0E0,0E0,0E0,0E0,0E0,0E0,0E0,0E0,0E0,0E0,0E0,0E0,0E0,0E0,0E0,0E0,0E0,0E0,0E0,0E0,0E0,0E0,0E0,0E0,0E0,0E0,0E0],"parents":[2147483647,0,0,1,1,2,2,3,3,4,4,5,5,6,6,7,7,8,8,9,9,10,10,11,11,12,12,13,13,14,14,15,15,16,16,17,17,18,18,19,19,20,20,21,21,22,22,23,23,24,24,25,25,26,26,27,27,28,28,29,29,30,30],"right_children":[2,4,6,8,10,12,14,16,18,20,22,24,26,28,30,32,34,36,38,40,42,44,46,48,50,52,54,56,58,60,62,-1,-1,-1,-1,-1,-1,-1,-1,-1,-1,-1,-1,-1,-1,-1,-1,-1,-1,-1,-1,-1,-1,-1,-1,-1,-1,-1,-1,-1,-1,-1,-1],"split_conditions":[5.1661354E-1,-4.1320258E-1,1.6619121E0,-1.3605105E0,-1.3605105E0,1.152889E0,-1.3605105E0,-4.1772482E-1,-7.555214E-1,8.4113754E-2,-6.6352654E-1,-3.966458E-1,-1.3605105E0,1.8525537E0,-6.912812E-1,-5.12787E-1,-4.1918162E-1,-1.0346402E0,-7.2183573E-1,-1.0216532E-1,6.989334E-1,-4.700891E-1,-9.7725624E-1,-1.3605105E0,9.162869E-1,7.207589E0,1.1270092E0,1.6246983E0,2.536183E0,1.5170847E0,2.4300578E0,-2.9286807E-2,-3.237861E-2,-3.221141E-2,-3.4016952E-2,-2.3040993E-2,-1.6221248E-2,-3.051986E-5,-1.1958894E-2,-1.371703E-2,-3.0229086E-2,-3.3253133E-2,-3.757423E-2,3.0083483E-2,8.562839E-3,2.7017979E-2,-9.3648816E-4,8.021096E-3,4.7697537E-2,1.4944039E-2,2.767601E-2,-4.274699E-2,-3.854906E-3,7.9010206E-4,1.999828E-2,7.072943E-2,3.796069E-2,-5.061015E-2,6.577676E-2,6.603185E-2,5.6010436E-2,3.8734164E-2,5.392166E-2],"split_indices":[14,14,14,1,1,11,1,12,14,11,1,1,1,11,1,11,11,14,11,12,11,11,11,1,14,11,14,11,14,11,14,0,0,0,0,0,0,0,0,0,0,0,0,0,0,0,0,0,0,0,0,0,0,0,0,0,0,0,0,0,0,0,0],"split_type":[0,0,0,0,0,0,0,0,0,0,0,0,0,0,0,0,0,0,0,0,0,0,0,0,0,0,0,0,0,0,0,0,0,0,0,0,0,0,0,0,0,0,0,0,0,0,0,0,0,0,0,0,0,0,0,0,0,0,0,0,0,0,0],"sum_hessian":[7.9648E4,6.055E4,1.9098E4,3.3807E4,2.6743E4,1.3856E4,5.242E3,6.707E3,2.71E4,1.324E3,2.5419E4,9.566E3,4.29E3,2.46E2,4.996E3,5.115E3,1.592E3,1.3324E4,1.3776E4,4.63E2,8.61E2,4.885E3,2.0534E4,3.522E3,6.044E3,3.82E2,3.908E3,1.22E2,1.24E2,1.078E3,3.918E3,4.654E3,4.61E2,7.66E2,8.26E2,3.992E3,9.332E3,2.262E3,1.1514E4,2.96E2,1.67E2,3.61E2,5E2,1.528E3,3.357E3,5.67E2,1.9967E4,3.06E2,3.216E3,3.238E3,2.806E3,3.32E2,5E1,1.849E3,2.059E3,7.5E1,4.7E1,1.06E2,1.8E1,5.68E2,5.1E2,2.59E3,1.328E3],"tree_param":{"num_deleted":"0","num_feature":"26","num_nodes":"63","size_leaf_vector":"1"}},{"base_weights":[7.8821136E-4,-5.318137E-1,6.7726284E-2,-5.1945424E-1,-8.575583E-1,-6.6308774E-2,3.4747362E-1,-5.371416E-1,-3.6197367E-1,-8.1883454E-1,-6.258792E-2,2.1501784E-1,-1.6079853E-1,1.9627623E-1,5.149775E-1,-5.6429243E-1,-4.921761E-1,-5.012331E-1,-2.47063E-1,-8.696811E-1,-6.7491144E-1,1.002596E-1,4.334116E-1,-2.5415242E-1,-5.5417757E-2,5.1563334E-1,9.859656E-2,3.4920707E-1,6.51017E-1,-2.7845988E-2,-3.222174E-2,-2.3398956E-2,-3.4653123E-2,-2.7840221E-2,-6.8164514E-3,-9.156973E-3,-3.321125E-2,-3.3196416E-2,-4.5289975E-2,-3.6913898E-2,2.2429353E-2,1.0054282E-2,-8.367126E-5,2.8951121E-2,1.4051828E-2,-7.7029816E-3,-1.5886663E-2,-8.50701E-3,1.2397451E-3,3.199139E-2,1.7993968E-2,-2.3522007E-3,9.431464E-3,2.9289598E-2,9.730706E-3,2.4371559E-2,3.7192497E-2],"categories":[],"categories_nodes":[],"categories_segments":[],"categories_sizes":[],"default_left":[0,1,1,0,1,0,0,0,0,0,0,0,0,0,0,0,0,1,1,0,0,0,0,0,0,0,0,0,0,0,0,0,0,0,0,0,0,0,0,0,0,0,0,0,0,0,0,0,0,0,0,0,0,0,0,0,0],"id":16,"left_children":[1,3,5,7,9,11,13,15,17,19,-1,21,23,25,27,29,31,33,35,37,39,41,43,45,47,49,51,53,55,-1,-1,-1,-1,-1,-1,-1,-1,-1,-1,-1,-1,-1,-1,-1,-1,-1,-1,-1,-1,-1,-1,-1,-1,-1,-1,-1,-1],"loss_changes":[2.8348884E3,3.5297607E1,2.6486995E3,2.3637695E1,3.9055786E0,1.2695608E3,5.7941187E2,9.110352E0,1.3750229E1,1.5865021E0,0E0,3.0090686E2,3.516936E2,3.751591E2,2.4456738E2,2.4702148E0,1.3786743E1,7.8528748E0,1.2598263E1,1.0037994E0,6.1689377E0,8.0915115E1,9.1604614E1,1.2059314E2,1.5455502E2,5.4261047E1,1.2080044E2,1.7891754E2,9.016211E1,0E0,0E0,0E0,0E0,0E0,0E0,0E0,0E0,0E0,0E0,0E0,0E0,0E0,0E0,0E0,0E0,0E0,0E0,0E0,0E0,0E0,0E0,0E0,0E0,0E0,0E0,0E0,0E0],"parents":[2147483647,0,0,1,1,2,2,3,3,4,4,5,5,6,6,7,7,8,8,9,9,11,11,12,12,13,13,14,14,15,15,16,16,17,17,18,18,19,19,20,20,21,21,22,22,23,23,24,24,25,25,26,26,27,27,28,28],"right_children":[2,4,6,8,10,12,14,16,18,20,-1,22,24,26,28,30,32,34,36,38,40,42,44,46,48,50,52,54,56,-1,-1,-1,-1,-1,-1,-1,-1,-1,-1,-1,-1,-1,-1,-1,-1,-1,-1,-1,-1,-1,-1,-1,-1,-1,-1,-1,-1],"split_conditions":[-1.3605105E0,2.5853295E0,1.1652922E-1,7.645569E0,3.1326368E0,-5.5134094E-1,5.246854E-1,-9.929868E-1,-1.091121E0,1E1,-6.258792E-2,-1.3791715E-1,-3.6208352E-1,-5.4119444E-1,7.1372E-1,1.1485443E-1,1E0,-1.0971142E0,1.1720929E0,-4.0792394E-1,2.934858E0,-8.6731523E-1,-8.418184E-1,6.584702E-2,-1.9229163E-1,-8.0856067E-1,-3.1664453E-2,-5.6316103E-3,9.890498E-1,-2.7845988E-2,-3.222174E-2,-2.3398956E-2,-3.4653123E-2,-2.7840221E-2,-6.8164514E-3,-9.156973E-3,-3.321125E-2,-3.3196416E-2,-4.5289975E-2,-3.6913898E-2,2.2429353E-2,1.0054282E-2,-8.367126E-5,2.8951121E-2,1.4051828E-2,-7.7029816E-3,-1.5886663E-2,-8.50701E-3,1.2397451E-3,3.199139E-2,1.7993968E-2,-2.3522007E-3,9.431464E-3,2.9289598E-2,9.730706E-3,2.4371559E-2,3.7192497E-2],"split_indices":[1,10,12,13,11,1,13,10,10,3,0,13,10,1,10,11,22,11,10,11,11,1,1,1,13,1,10,1,12,0,0,0,0,0,0,0,0,0,0,0,0,0,0,0,0,0,0,0,0,0,0,0,0,0,0,0,0],"split_type":[0,0,0,0,0,0,0,0,0,0,0,0,0,0,0,0,0,0,0,0,0,0,0,0,0,0,0,0,0,0,0,0,0,0,0,0,0,0,0,0,0,0,0,0,0,0,0,0,0,0,0,0,0,0,0,0,0],"sum_hessian":[7.9515E4,8.877E3,7.0638E4,8.555E3,3.22E2,4.7757E4,2.2881E4,7.689E3,8.66E2,2.96E2,2.6E1,1.2007E4,3.575E4,1.2027E4,1.0854E4,4.787E3,2.902E3,3.9E2,4.76E2,2.15E2,8.1E1,7.872E3,4.135E3,1.8956E4,1.6794E4,2.816E3,9.211E3,4.894E3,5.96E3,4.391E3,3.96E2,2.593E3,3.09E2,3.38E2,5.2E1,4.14E2,6.2E1,3.5E1,1.8E2,7.7E1,4E0,3.957E3,3.915E3,2.113E3,2.022E3,7.365E3,1.1591E4,6.91E3,9.884E3,1.565E3,1.251E3,3.519E3,5.692E3,1.933E3,2.961E3,2.16E3,3.8E3],"tree_param":{"num_deleted":"0","num_feature":"26","num_nodes":"57","size_leaf_vector":"1"}},{"base_weights":[5.1650003E-4,-2.218685E-1,4.042951E-1,-3.7089837E-1,-8.828974E-2,2.2606607E-1,7.002459E-1,-5.495488E-1,-3.0990854E-1,-5.6345624E-1,-6.4467E-2,3.144318E-1,-1.4557047E-1,5.627052E-1,8.912063E-1,-5.339109E-1,-5.8819914E-1,-4.1221654E-1,-2.6745307E-1,-3.720047E-1,-6.073524E-1,4.0084124E-1,-8.405651E-2,5.0369817E-1,1.8578826E-1,-7.3354E-1,-5.9904218E-2,7.414359E-1,2.1870604E-1,1.0084368E0,7.0408934E-1,-2.627558E-2,-2.8277187E-2,-2.8485954E-2,-3.0480294E-2,-2.8261041E-2,-1.9397419E-2,-5.672046E-4,-1.4582388E-2,-2.0403275E-2,3.0545816E-2,-3.2922793E-2,-2.8664632E-2,3.243472E-2,1.1273398E-2,-1.2019261E-5,-8.367895E-3,-1.21379215E-2,2.8506989E-2,6.230008E-3,1.6990628E-2,-3.7619196E-2,-3.0360777E-2,-1.1329194E-2,5.03066E-3,4.9591973E-2,2.7822617E-2,-3.0999137E-2,1.5320617E-2,5.909046E-2,4.656079E-2,2.2484845E-2,5.137397E-2],"categories":[],"categories_nodes":[],"categories_segments":[],"categories_sizes":[],"default_left":[1,1,0,0,0,1,0,0,0,0,0,0,0,0,0,0,0,0,1,0,0,0,0,0,0,0,0,0,0,0,0,0,0,0,0,0,0,0,0,0,0,0,0,0,0,0,0,0,0,0,0,0,0,0,0,0,0,0,0,0,0,0,0],"id":17,"left_children":[1,3,5,7,9,11,13,15,17,19,21,23,25,27,29,31,33,35,37,39,41,43,45,47,49,51,53,55,57,59,61,-1,-1,-1,-1,-1,-1,-1,-1,-1,-1,-1,-1,-1,-1,-1,-1,-1,-1,-1,-1,-1,-1,-1,-1,-1,-1,-1,-1,-1,-1,-1,-1],"loss_changes":[7.129847E3,1.01925684E3,1.4873071E3,2.6352026E2,3.0562E2,5.780942E2,2.7787988E2,3.407959E0,7.8264404E1,1.0606812E1,2.3442097E2,3.4615784E2,1.7030452E2,3.788203E2,9.659741E1,8.7060547E-1,3.5058594E-1,1.9423218E1,7.9032715E1,8.862408E0,1.4449158E0,4.5015762E1,1.7228781E2,2.8551257E2,7.976395E1,5.667267E-1,7.903027E1,1.8732422E2,1.5532443E2,3.5381836E1,1.4038074E2,0E0,0E0,0E0,0E0,0E0,0E0,0E0,0E0,0E0,0E0,0E0,0E0,0E0,0E0,0E0,0E0,0E0,0E0,0E0,0E0,0E0,0E0,0E0,0E0,0E0,0E0,0E0,0E0,0E0,0E0,0E0,0E0],"parents":[2147483647,0,0,1,1,2,2,3,3,4,4,5,5,6,6,7,7,8,8,9,9,10,10,11,11,12,12,13,13,14,14,15,15,16,16,17,17,18,18,19,19,20,20,21,21,22,22,23,23,24,24,25,25,26,26,27,27,28,28,29,29,30,30],"right_children":[2,4,6,8,10,12,14,16,18,20,22,24,26,28,30,32,34,36,38,40,42,44,46,48,50,52,54,56,58,60,62,-1,-1,-1,-1,-1,-1,-1,-1,-1,-1,-1,-1,-1,-1,-1,-1,-1,-1,-1,-1,-1,-1,-1,-1,-1,-1,-1,-1,-1,-1,-1,-1],"split_conditions":[1.071183E-1,-6.3207465E-1,1.101789E0,-1.3605105E0,-1.3605105E0,9.1448784E-1,1.8061986E0,-1.3473272E0,-9.83444E-1,-3.38244E-1,-9.15431E-1,-2.4874261E-1,-1.3605105E0,1.3893433E0,2.2360466E0,-7.636051E-1,-3.0796158E-1,-1.2741727E0,-1.0649862E0,1.2264696E0,6E0,-4.4069728E-1,-2.3276227E-2,-1.3605105E0,6.7720985E-1,1E0,7.1237445E-1,-3.0014426E-1,-1.3605105E0,-5.5134094E-1,2.6645317E0,-2.627558E-2,-2.8277187E-2,-2.8485954E-2,-3.0480294E-2,-2.8261041E-2,-1.9397419E-2,-5.672046E-4,-1.4582388E-2,-2.0403275E-2,3.0545816E-2,-3.2922793E-2,-2.8664632E-2,3.243472E-2,1.1273398E-2,-1.2019261E-5,-8.367895E-3,-1.21379215E-2,2.8506989E-2,6.230008E-3,1.6990628E-2,-3.7619196E-2,-3.0360777E-2,-1.1329194E-2,5.03066E-3,4.9591973E-2,2.7822617E-2,-3.0999137E-2,1.5320617E-2,5.909046E-2,4.656079E-2,2.2484845E-2,5.137397E-2],"split_indices":[14,14,14,1,1,11,14,14,14,11,11,1,1,11,11,13,13,14,11,6,3,1,1,1,14,17,14,1,1,1,14,0,0,0,0,0,0,0,0,0,0,0,0,0,0,0,0,0,0,0,0,0,0,0,0,0,0,0,0,0,0,0,0],"split_type":[0,0,0,0,0,0,0,0,0,0,0,0,0,0,0,0,0,0,0,0,0,0,0,0,0,0,0,0,0,0,0,0,0,0,0,0,0,0,0,0,0,0,0,0,0,0,0,0,0,0,0,0,0,0,0,0,0,0,0,0,0,0,0],"sum_hessian":[7.94E4,5.1201E4,2.8199E4,2.42E4,2.7001E4,1.7601E4,1.0598E4,6.157E3,1.8043E4,1.288E3,2.5713E4,1.422E4,3.381E3,6.163E3,4.435E3,4.394E3,1.763E3,5.289E3,1.2754E4,2.42E2,1.046E3,1.038E3,2.4675E4,5.753E3,8.467E3,4.29E2,2.952E3,4.055E3,2.108E3,2.724E3,1.711E3,3.486E3,9.08E2,9.61E2,8.02E2,7.21E2,4.568E3,1.101E3,1.1653E4,2.34E2,8E0,4.11E2,6.35E2,4.29E2,6.09E2,1.23E4,1.2375E4,4.7E2,5.283E3,6.061E3,2.406E3,3.69E2,6E1,1.448E3,1.504E3,1.721E3,2.334E3,1.99E2,1.909E3,8.35E2,1.889E3,9.59E2,7.52E2],"tree_param":{"num_deleted":"0","num_feature":"26","num_nodes":"63","size_leaf_vector":"1"}},{"base_weights":[5.9044454E-4,-1.7134209E-1,4.766638E-1,-3.018754E-1,1.1459673E-2,3.545066E-1,7.9378474E-1,-5.242256E-1,-2.4806952E-1,-5.177063E-1,3.7061054E-2,-3.4772354E-1,3.9588416E-1,2.0393597E-1,8.2409424E-1,-2.5359422E-2,-5.569876E-1,-3.2973784E-1,-1.835183E-1,-6.131425E-1,-4.7569683E-1,1.6223134E-1,-5.3089797E-2,-5.814727E-1,-2.478573E-1,9.233195E-1,2.9229635E-1,-2.2029301E-2,6.294363E-2,1.0806255E0,7.4247426E-1,-2.9228404E-2,-2.6395906E-2,-2.243144E-2,-1.5180396E-2,-5.253464E-3,-1.2307942E-2,-3.120003E-2,1.2066293E-2,-2.1159265E-2,-3.0208692E-2,2.9515661E-3,1.3701947E-2,-5.826845E-3,3.207954E-4,-2.0947164E-2,-3.4659754E-2,-2.2468701E-2,-5.853815E-3,3.814355E-2,5.2961506E-2,2.1278005E-2,1.0057231E-2,2.1643299E-3,-3.9029844E-2,5.6473453E-2,4.996672E-2,3.1734873E-2,4.666362E-2],"categories":[],"categories_nodes":[],"categories_segments":[],"categories_sizes":[],"default_left":[1,1,0,0,0,0,0,0,0,0,0,0,0,0,0,0,0,0,0,0,0,0,0,0,0,0,0,0,0,0,0,0,0,0,0,0,0,0,0,0,0,0,0,0,0,0,0,0,0,0,0,0,0,0,0,0,0,0,0],"id":18,"left_children":[1,3,5,7,9,11,13,15,17,19,21,23,25,27,29,-1,31,33,35,37,39,41,43,45,47,49,51,53,-1,55,57,-1,-1,-1,-1,-1,-1,-1,-1,-1,-1,-1,-1,-1,-1,-1,-1,-1,-1,-1,-1,-1,-1,-1,-1,-1,-1,-1,-1],"loss_changes":[6.5306016E3,1.3986823E3,8.197759E2,4.0899414E2,3.3084622E2,4.442379E2,1.0506201E2,3.4360352E0,1.4510352E2,4.226715E0,2.6286295E2,1.9721321E1,7.88344E2,6.891926E1,1.16408936E2,0E0,1.5106201E0,3.7624634E1,7.556268E1,3.3143616E0,5.053833E0,1.1251926E2,5.1128094E1,4.3217697E0,1.5707417E1,5.085193E1,1.4648267E2,1.1875408E1,0E0,4.227539E0,8.680298E1,0E0,0E0,0E0,0E0,0E0,0E0,0E0,0E0,0E0,0E0,0E0,0E0,0E0,0E0,0E0,0E0,0E0,0E0,0E0,0E0,0E0,0E0,0E0,0E0,0E0,0E0,0E0,0E0],"parents":[2147483647,0,0,1,1,2,2,3,3,4,4,5,5,6,6,7,7,8,8,9,9,10,10,11,11,12,12,13,13,14,14,16,16,17,17,18,18,19,19,20,20,21,21,22,22,23,23,24,24,25,25,26,26,27,27,29,29,30,30],"right_children":[2,4,6,8,10,12,14,16,18,20,22,24,26,28,30,-1,32,34,36,38,40,42,44,46,48,50,52,54,-1,56,58,-1,-1,-1,-1,-1,-1,-1,-1,-1,-1,-1,-1,-1,-1,-1,-1,-1,-1,-1,-1,-1,-1,-1,-1,-1,-1,-1,-1],"split_conditions":[4.124436E-1,-4.0600955E-1,1.5789603E0,-1.3605105E0,-1.3605105E0,-1.3605105E0,-1.3605105E0,-1.3473272E0,-7.824627E-1,5E0,-1.8838315E-1,6.236437E-1,-7.975615E-1,2.536183E0,-6.158946E-1,-2.5359422E-2,1E0,-1.1281316E0,-1.0191698E-1,3.9859265E-1,1.1E1,-6.63035E-2,-7.517617E-2,1.3E1,-4.4848296E-1,8.7403315E-1,7.54113E-2,1E0,6.294363E-2,-8.6731523E-1,2.3364131E0,-2.9228404E-2,-2.6395906E-2,-2.243144E-2,-1.5180396E-2,-5.253464E-3,-1.2307942E-2,-3.120003E-2,1.2066293E-2,-2.1159265E-2,-3.0208692E-2,2.9515661E-3,1.3701947E-2,-5.826845E-3,3.207954E-4,-2.0947164E-2,-3.4659754E-2,-2.2468701E-2,-5.853815E-3,3.814355E-2,5.2961506E-2,2.1278005E-2,1.0057231E-2,2.1643299E-3,-3.9029844E-2,5.6473453E-2,4.996672E-2,3.1734873E-2,4.666362E-2],"split_indices":[14,14,14,1,1,1,1,14,14,3,1,14,1,14,1,0,21,14,1,14,3,14,14,2,8,14,1,22,0,1,14,0,0,0,0,0,0,0,0,0,0,0,0,0,0,0,0,0,0,0,0,0,0,0,0,0,0,0,0],"split_type":[0,0,0,0,0,0,0,0,0,0,0,0,0,0,0,0,0,0,0,0,0,0,0,0,0,0,0,0,0,0,0,0,0,0,0,0,0,0,0,0,0,0,0,0,0,0,0,0,0,0,0,0,0,0,0,0,0,0,0],"sum_hessian":[7.9783E4,5.8615E4,2.1168E4,3.4196E4,2.4419E4,1.5283E4,5.885E3,6.661E3,2.7535E4,1.126E3,2.3293E4,8.5E2,1.4433E4,2.88E2,5.597E3,4.393E3,2.268E3,1.2154E4,1.5381E4,3.4E2,7.86E2,9.752E3,1.3541E4,2.53E2,5.97E2,2.368E3,1.2065E4,2.38E2,5E1,1.348E3,4.249E3,1.154E3,1.114E3,2.187E3,9.967E3,6.83E3,8.551E3,3.36E2,4E0,5.61E2,2.25E2,5.072E3,4.68E3,6.553E3,6.988E3,1.05E2,1.48E2,2.34E2,3.63E2,1.089E3,1.279E3,4.899E3,7.166E3,2.2E2,1.8E1,8.34E2,5.14E2,2.718E3,1.531E3],"tree_param":{"num_deleted":"0","num_feature":"26","num_nodes":"59","size_leaf_vector":"1"}},{"base_weights":[-3.8160651E-4,-1.5698433E-1,4.69829E-1,-2.821966E-1,2.2272673E-2,3.6764923E-1,7.775954E-1,-4.243048E-1,-2.1684526E-1,7.80365E-2,-3.1950217E-1,4.8033285E-1,-1.6470994E-1,8.571212E-1,4.050664E-1,-4.843062E-1,-3.647244E-1,-1.9050533E-1,-3.9047053E-1,8.57642E-1,4.8065558E-2,-2.4910769E-1,-5.7103455E-1,1.0999659E0,3.7777838E-1,5.845543E-1,-2.3513013E-1,1.0836741E0,7.7506423E-1,1.1105897E-1,8.4324014E-1,-2.388279E-2,-2.5505409E-2,-1.1788506E-2,-1.999373E-2,1.4270258E-2,-1.0435043E-2,-1.7310811E-2,-2.6176212E-2,7.1502894E-2,2.9484654E-2,5.14412E-3,-1.2194506E-2,1.418324E-2,-1.5670368E-2,-2.0383505E-2,-3.147961E-2,6.730842E-2,3.3724643E-2,2.2421613E-2,-1.3210165E-2,-1.7273804E-3,5.655555E-2,-3.9003235E-3,-2.7017346E-2,6.1327416E-2,4.8483063E-2,2.8627349E-2,4.7913365E-2,2.1385038E-2,-3.115653E-2,4.659518E-2,1.5860481E-2],"categories":[],"categories_nodes":[],"categories_segments":[],"categories_sizes":[],"default_left":[1,1,0,1,1,0,0,1,1,0,0,0,0,0,0,0,1,0,0,0,1,1,1,0,1,0,1,0,0,1,1,0,0,0,0,0,0,0,0,0,0,0,0,0,0,0,0,0,0,0,0,0,0,0,0,0,0,0,0,0,0,0,0],"id":19,"left_children":[1,3,5,7,9,11,13,15,17,19,21,23,25,27,29,31,33,35,37,39,41,43,45,47,49,51,53,55,57,59,61,-1,-1,-1,-1,-1,-1,-1,-1,-1,-1,-1,-1,-1,-1,-1,-1,-1,-1,-1,-1,-1,-1,-1,-1,-1,-1,-1,-1,-1,-1,-1,-1],"loss_changes":[5.8495903E3,1.3375596E3,6.23853E2,3.257412E2,4.6711493E2,8.9402246E2,1.4618115E2,3.932959E1,1.0984448E2,4.9229346E2,6.0732666E1,7.811384E2,1.3753317E2,7.491553E1,1.12242905E2,7.006836E-1,2.5058105E1,1.8079077E2,1.8454895E1,1.1879175E2,3.2478003E2,9.217198E1,6.9275513E0,1.8198999E2,4.788319E2,7.5834915E1,1.14142944E2,1.6419434E1,1.1057117E2,1.21851E2,1.6028275E1,0E0,0E0,0E0,0E0,0E0,0E0,0E0,0E0,0E0,0E0,0E0,0E0,0E0,0E0,0E0,0E0,0E0,0E0,0E0,0E0,0E0,0E0,0E0,0E0,0E0,0E0,0E0,0E0,0E0,0E0,0E0,0E0],"parents":[2147483647,0,0,1,1,2,2,3,3,4,4,5,5,6,6,7,7,8,8,9,9,10,10,11,11,12,12,13,13,14,14,15,15,16,16,17,17,18,18,19,19,20,20,21,21,22,22,23,23,24,24,25,25,26,26,27,27,28,28,29,29,30,30],"right_children":[2,4,6,8,10,12,14,16,18,20,22,24,26,28,30,32,34,36,38,40,42,44,46,48,50,52,54,56,58,60,62,-1,-1,-1,-1,-1,-1,-1,-1,-1,-1,-1,-1,-1,-1,-1,-1,-1,-1,-1,-1,-1,-1,-1,-1,-1,-1,-1,-1,-1,-1,-1,-1],"split_conditions":[4.7509882E-1,-3.7803853E-1,1.7111759E0,-9.639889E-1,4.8446104E-1,1.6187288E0,3.0943472E0,-1.241833E0,-2.3350221E-1,-6.9383913E-1,1.1720929E0,9.363636E-2,-9.283084E-1,1.3100263E0,2.6645317E0,-3.3317503E-1,-1.0274874E0,-1.0971142E0,9.1477156E-2,-3.9639434E-1,4.7288418E-1,-9.026456E-1,-1.0971142E0,6.9456667E-1,2.3465881E0,1.053782E0,2.5853295E0,1.5621527E0,2.24911E0,1.1828886E0,3.3881948E0,-2.388279E-2,-2.5505409E-2,-1.1788506E-2,-1.999373E-2,1.4270258E-2,-1.0435043E-2,-1.7310811E-2,-2.6176212E-2,7.1502894E-2,2.9484654E-2,5.14412E-3,-1.2194506E-2,1.418324E-2,-1.5670368E-2,-2.0383505E-2,-3.147961E-2,6.730842E-2,3.3724643E-2,2.2421613E-2,-1.3210165E-2,-1.7273804E-3,5.655555E-2,-3.9003235E-3,-2.7017346E-2,6.1327416E-2,4.8483063E-2,2.8627349E-2,4.7913365E-2,2.1385038E-2,-3.115653E-2,4.659518E-2,1.5860481E-2],"split_indices":[14,14,14,14,10,10,10,14,10,11,10,11,11,11,14,13,11,11,10,10,11,11,11,10,11,14,10,10,14,11,11,0,0,0,0,0,0,0,0,0,0,0,0,0,0,0,0,0,0,0,0,0,0,0,0,0,0,0,0,0,0,0,0],"split_type":[0,0,0,0,0,0,0,0,0,0,0,0,0,0,0,0,0,0,0,0,0,0,0,0,0,0,0,0,0,0,0,0,0,0,0,0,0,0,0,0,0,0,0,0,0,0,0,0,0,0,0,0,0,0,0,0,0,0,0,0,0,0,0],"sum_hessian":[7.9437E4,5.9591E4,1.9846E4,3.5084E4,2.4507E4,1.4901E4,4.945E3,1.105E4,2.4034E4,2.107E4,3.437E3,1.2298E4,2.603E3,4.074E3,8.71E2,5.502E3,5.548E3,2.087E4,3.164E3,7.79E2,2.0291E4,2.687E3,7.5E2,1.745E3,1.0553E4,2.23E2,2.38E3,1.08E3,2.994E3,5.22E2,3.49E2,4.39E3,1.112E3,1.19E3,4.358E3,7.68E2,2.0102E4,2.377E3,7.87E2,2.47E2,5.32E2,1.7084E4,3.207E3,2.89E2,2.398E3,2E2,5.5E2,1.104E3,6.41E2,9.507E3,1.046E3,1.05E2,1.18E2,1.572E3,8.08E2,4.75E2,6.05E2,1.424E3,1.57E3,3.65E2,1.57E2,2.98E2,5.1E1],"tree_param":{"num_deleted":"0","num_feature":"26","num_nodes":"63","size_leaf_vector":"1"}},{"base_weights":[-8.6218136E-4,-4.4586116E-1,5.5259235E-2,-4.2977408E-1,-7.215836E-1,-5.9658725E-2,2.824264E-1,-4.744717E-1,-3.5673937E-1,-6.826278E-1,-5.9694916E-2,1.584578E-1,-1.4866607E-1,1.6852738E-1,4.2077428E-1,-4.606449E-1,-6.405209E-1,-4.006919E-1,4.8723704E-1,-8.298178E-1,-6.0531026E-1,1.0283367E-1,3.5313585E-1,-2.1276294E-1,-4.5629255E-2,3.740957E-1,5.7159957E-2,2.7674723E-1,5.150895E-1,-2.242968E-2,-2.56111E-2,-2.9429156E-2,-3.6185727E-2,-2.0895077E-2,2.8982884E-3,-1.6245047E-3,3.62971E-2,-3.7276197E-2,-4.4308227E-2,-3.408075E-2,3.5700575E-2,1.0741957E-2,1.3669076E-3,2.5846848E-2,1.0762013E-2,8.629241E-4,-1.2011233E-2,1.2047676E-3,-5.4928935E-3,2.6588151E-2,1.3949457E-2,-4.1247415E-3,6.0089133E-3,2.3971034E-2,9.375777E-3,2.6573662E-2,-5.946153E-3],"categories":[],"categories_nodes":[],"categories_segments":[],"categories_sizes":[],"default_left":[0,1,1,0,1,0,0,1,0,0,0,0,0,0,0,0,0,0,0,0,0,0,0,0,0,0,0,0,0,0,0,0,0,0,0,0,0,0,0,0,0,0,0,0,0,0,0,0,0,0,0,0,0,0,0,0,0],"id":20,"left_children":[1,3,5,7,9,11,13,15,17,19,-1,21,23,25,27,29,31,33,35,37,39,41,43,45,47,49,51,53,55,-1,-1,-1,-1,-1,-1,-1,-1,-1,-1,-1,-1,-1,-1,-1,-1,-1,-1,-1,-1,-1,-1,-1,-1,-1,-1,-1,-1],"loss_changes":[1.9880277E3,3.9233154E1,1.8453945E3,2.7337158E1,8.200729E0,9.113736E2,3.7412708E2,1.1698853E1,1.1901022E2,4.6757812E0,0E0,1.4728946E2,2.201723E2,2.981909E2,1.4550452E2,2.7698975E0,1.2980652E0,2.4059479E1,1.974936E1,7.079315E-2,3.0889175E1,8.948304E1,6.817056E1,1.2983295E2,5.7266853E1,6.848462E1,7.437674E1,7.668045E1,6.735327E1,0E0,0E0,0E0,0E0,0E0,0E0,0E0,0E0,0E0,0E0,0E0,0E0,0E0,0E0,0E0,0E0,0E0,0E0,0E0,0E0,0E0,0E0,0E0,0E0,0E0,0E0,0E0,0E0],"parents":[2147483647,0,0,1,1,2,2,3,3,4,4,5,5,6,6,7,7,8,8,9,9,11,11,12,12,13,13,14,14,15,15,16,16,17,17,18,18,19,19,20,20,21,21,22,22,23,23,24,24,25,25,26,26,27,27,28,28],"right_children":[2,4,6,8,10,12,14,16,18,20,-1,22,24,26,28,30,32,34,36,38,40,42,44,46,48,50,52,54,56,-1,-1,-1,-1,-1,-1,-1,-1,-1,-1,-1,-1,-1,-1,-1,-1,-1,-1,-1,-1,-1,-1,-1,-1,-1,-1,-1,-1],"split_conditions":[-1.3605105E0,1.974124E0,7.6333456E-2,-1.5035534E0,3.1326368E0,-4.6663243E-1,5.1959044E-1,5.5295324E-1,9.0362054E-1,-1.657617E0,-5.9694916E-2,8.4113754E-2,-3.3611727E-1,-2.6508975E-1,8.250291E-1,-4.9020672E-1,6.9456667E-1,1E0,-8.9337796E-1,2.9092817E0,2.1258352E0,-8.9213276E-1,-8.418184E-1,-1.100538E0,3.6375684E-1,-7.8627443E-1,-1.6653955E-1,-1.8838315E-1,2.46035E0,-2.242968E-2,-2.56111E-2,-2.9429156E-2,-3.6185727E-2,-2.0895077E-2,2.8982884E-3,-1.6245047E-3,3.62971E-2,-3.7276197E-2,-4.4308227E-2,-3.408075E-2,3.5700575E-2,1.0741957E-2,1.3669076E-3,2.5846848E-2,1.0762013E-2,8.629241E-4,-1.2011233E-2,1.2047676E-3,-5.4928935E-3,2.6588151E-2,1.3949457E-2,-4.1247415E-3,6.0089133E-3,2.3971034E-2,9.375777E-3,2.6573662E-2,-5.946153E-3],"split_indices":[1,10,12,0,11,1,11,11,6,0,0,11,12,1,12,12,10,23,8,10,6,1,1,12,1,1,10,1,1,0,0,0,0,0,0,0,0,0,0,0,0,0,0,0,0,0,0,0,0,0,0,0,0,0,0,0,0],"split_type":[0,0,0,0,0,0,0,0,0,0,0,0,0,0,0,0,0,0,0,0,0,0,0,0,0,0,0,0,0,0,0,0,0,0,0,0,0,0,0,0,0,0,0,0,0,0,0,0,0,0,0,0,0,0,0,0,0],"sum_hessian":[7.9602E4,8.914E3,7.0688E4,8.425E3,4.89E2,4.6942E4,2.3746E4,5.223E3,3.202E3,4.54E2,3.5E1,1.3604E4,3.3338E4,1.3025E4,1.0721E4,4.825E3,3.98E2,3.044E3,1.58E2,1.53E2,3.01E2,1.0582E4,3.022E3,2.0552E4,1.2786E4,4.576E3,8.449E3,4.244E3,6.477E3,3.919E3,9.06E2,2.5E2,1.48E2,2.934E3,1.1E2,5E1,1.08E2,6.7E1,8.6E1,2.85E2,1.6E1,4.26E3,6.322E3,1.38E3,1.642E3,2.192E3,1.836E4,6.131E3,6.655E3,1.72E3,2.856E3,2.627E3,5.822E3,1.296E3,2.948E3,6.314E3,1.63E2],"tree_param":{"num_deleted":"0","num_feature":"26","num_nodes":"57","size_leaf_vector":"1"}},{"base_weights":[2.346501E-3,-1.8980318E-1,3.40059E-1,-3.2196313E-1,-8.887613E-2,1.7630917E-1,5.7825094E-1,-4.5112097E-1,-2.7326733E-1,-4.771593E-1,-6.8564564E-2,2.7923128E-1,-1.7113747E-1,6.625949E-1,1.7294876E-1,-4.3640164E-1,-4.9900165E-1,-9.265573E-2,-2.945375E-1,-3.4161717E-1,-5.363455E-1,4.273349E-1,-8.7516405E-2,7.7386045E-1,1.5365916E-1,-6.3208765E-1,-1.023977E-1,1.1358743E0,5.6574047E-1,-1.5411125E-1,6.005319E-1,-2.1610245E-2,-2.5587467E-2,-2.4383822E-2,-2.6468663E-2,-1.8493026E-2,9.844707E-4,-1.8783208E-2,-1.2947202E-2,2.782966E-2,-2.555418E-2,-2.4571924E-2,-2.9396275E-2,6.003821E-2,9.335776E-3,-3.2369837E-3,-1.5569701E-2,6.377273E-2,2.7023787E-2,1.2432168E-2,-7.738329E-3,-3.470796E-2,-7.852531E-3,1.4612212E-2,-9.365454E-3,6.905662E-2,4.5649532E-2,2.0621808E-2,4.0654637E-2,1.3460879E-2,-2.0347768E-2,2.0384675E-2,4.7256112E-2],"categories":[],"categories_nodes":[],"categories_segments":[],"categories_sizes":[],"default_left":[1,1,0,0,0,0,0,0,1,0,0,0,0,0,0,0,1,0,0,0,1,0,1,0,1,0,1,0,0,1,0,0,0,0,0,0,0,0,0,0,0,0,0,0,0,0,0,0,0,0,0,0,0,0,0,0,0,0,0,0,0,0,0],"id":21,"left_children":[1,3,5,7,9,11,13,15,17,19,21,23,25,27,29,31,33,35,37,39,41,43,45,47,49,51,53,55,57,59,61,-1,-1,-1,-1,-1,-1,-1,-1,-1,-1,-1,-1,-1,-1,-1,-1,-1,-1,-1,-1,-1,-1,-1,-1,-1,-1,-1,-1,-1,-1,-1,-1],"loss_changes":[5.1730083E3,6.7768787E2,1.1274619E3,1.3824487E2,2.2718137E2,6.1272296E2,4.024795E2,4.026367E0,6.1358154E1,1.1304596E1,2.5735098E2,8.208728E2,1.24016106E2,4.4619824E2,2.839786E2,1.237793E0,2.2647095E-1,5.248259E1,4.1180664E1,6.695528E1,2.0157776E0,1.8736668E2,1.3445598E2,3.1257495E2,3.089016E2,1.487001E1,1.1428894E2,8.920825E1,3.065901E2,1.23308235E2,5.809085E1,0E0,0E0,0E0,0E0,0E0,0E0,0E0,0E0,0E0,0E0,0E0,0E0,0E0,0E0,0E0,0E0,0E0,0E0,0E0,0E0,0E0,0E0,0E0,0E0,0E0,0E0,0E0,0E0,0E0,0E0,0E0,0E0],"parents":[2147483647,0,0,1,1,2,2,3,3,4,4,5,5,6,6,7,7,8,8,9,9,10,10,11,11,12,12,13,13,14,14,15,15,16,16,17,17,18,18,19,19,20,20,21,21,22,22,23,23,24,24,25,25,26,26,27,27,28,28,29,29,30,30],"right_children":[2,4,6,8,10,12,14,16,18,20,22,24,26,28,30,32,34,36,38,40,42,44,46,48,50,52,54,56,58,60,62,-1,-1,-1,-1,-1,-1,-1,-1,-1,-1,-1,-1,-1,-1,-1,-1,-1,-1,-1,-1,-1,-1,-1,-1,-1,-1,-1,-1,-1,-1,-1,-1],"split_conditions":[8.506245E-2,-6.8659544E-1,1.0061044E0,-1.3605105E0,-1.3605105E0,7.947328E-1,2.7345402E0,-6.015238E-1,-1.091121E0,-2.824244E-1,-1.091121E0,-1.4100777E-2,-1.3605105E0,5.5295324E-1,2.097928E0,-6.115873E-1,-4.9074996E-1,-1.1875677E0,-9.83444E-1,-9.609254E-2,3.264927E-1,-3.7364823E-1,1.7771131E-1,-9.789367E-2,9.6145165E-1,2.6080937E0,-1.0971142E0,9.068518E-1,1.8061986E0,-4.6487996E-1,3.032676E0,-2.1610245E-2,-2.5587467E-2,-2.4383822E-2,-2.6468663E-2,-1.8493026E-2,9.844707E-4,-1.8783208E-2,-1.2947202E-2,2.782966E-2,-2.555418E-2,-2.4571924E-2,-2.9396275E-2,6.003821E-2,9.335776E-3,-3.2369837E-3,-1.5569701E-2,6.377273E-2,2.7023787E-2,1.2432168E-2,-7.738329E-3,-3.470796E-2,-7.852531E-3,1.4612212E-2,-9.365454E-3,6.905662E-2,4.5649532E-2,2.0621808E-2,4.0654637E-2,1.3460879E-2,-2.0347768E-2,2.0384675E-2,4.7256112E-2],"split_indices":[14,14,14,1,1,10,10,12,10,10,10,11,1,11,14,10,10,14,14,11,10,11,11,10,11,11,11,10,14,11,14,0,0,0,0,0,0,0,0,0,0,0,0,0,0,0,0,0,0,0,0,0,0,0,0,0,0,0,0,0,0,0,0],"split_type":[0,0,0,0,0,0,0,0,0,0,0,0,0,0,0,0,0,0,0,0,0,0,0,0,0,0,0,0,0,0,0,0,0,0,0,0,0,0,0,0,0,0,0,0,0,0,0,0,0,0,0,0,0,0,0,0,0,0,0,0,0,0,0],"sum_hessian":[7.9716E4,5.0808E4,2.8908E4,2.1999E4,2.8809E4,1.7132E4,1.1776E4,6.021E3,1.5978E4,1.431E3,2.7378E4,1.3217E4,3.915E3,9.747E3,2.029E3,4.613E3,1.408E3,1.684E3,1.4294E4,4.37E2,9.94E2,1.007E3,2.6371E4,2.675E3,1.0542E4,5.07E2,3.408E3,1.654E3,8.093E3,1.15E3,8.79E2,4.376E3,2.37E2,1.038E3,3.7E2,4.85E2,1.199E3,4.356E3,9.938E3,6.9E1,3.68E2,5.37E2,4.57E2,2.38E2,7.69E2,2.3937E4,2.434E3,8.48E2,1.827E3,8.06E3,2.482E3,4.48E2,5.9E1,6.03E2,2.805E3,7.85E2,8.69E2,4.998E3,3.095E3,4.3E2,7.2E2,5.65E2,3.14E2],"tree_param":{"num_deleted":"0","num_feature":"26","num_nodes":"63","size_leaf_vector":"1"}},{"base_weights":[-4.9627747E-4,-1.2956862E-1,4.5244604E-1,-2.4317783E-1,3.9855905E-2,5.1461536E-1,8.52147E-2,-4.332139E-1,-2.0061035E-1,9.315831E-2,-2.850536E-1,8.656896E-1,4.2909044E-1,-2.5037324E-1,5.672412E-1,-4.1708538E-1,-5.1131904E-1,-2.737004E-1,-1.3919595E-1,5.512064E-1,4.2039268E-2,-6.166769E-1,-2.250485E-1,1.2427666E0,5.852617E-1,2.247805E-1,6.639129E-1,8.4767394E-2,-4.2393523E-1,3.254894E-1,8.4237134E-1,-2.03963E-2,-2.4256852E-2,-2.4145637E-2,-2.6521174E-2,-6.2124627E-3,-1.4636563E-2,1.0980246E-2,-7.913598E-3,1.720882E-2,5.3846933E-2,4.4581234E-3,-1.4491691E-2,-2.9465977E-2,-3.4253128E-2,7.6771737E-3,-1.450758E-2,6.7785464E-2,5.1619876E-2,1.3482304E-2,5.0636083E-2,1.5126546E-2,-1.3524129E-2,3.5648603E-2,1.112541E-2,-2.139419E-2,1.2771604E-2,-3.9676268E-2,-1.5668662E-2,2.818503E-2,-4.307134E-2,4.5206327E-2,2.5482167E-2],"categories":[],"categories_nodes":[],"categories_segments":[],"categories_sizes":[],"default_left":[1,1,0,0,1,0,0,0,0,0,0,0,0,1,0,0,0,1,1,0,1,0,1,0,0,1,1,0,0,1,1,0,0,0,0,0,0,0,0,0,0,0,0,0,0,0,0,0,0,0,0,0,0,0,0,0,0,0,0,0,0,0,0],"id":22,"left_children":[1,3,5,7,9,11,13,15,17,19,21,23,25,27,29,31,33,35,37,39,41,43,45,47,49,51,53,55,57,59,61,-1,-1,-1,-1,-1,-1,-1,-1,-1,-1,-1,-1,-1,-1,-1,-1,-1,-1,-1,-1,-1,-1,-1,-1,-1,-1,-1,-1,-1,-1,-1,-1],"loss_changes":[4.649977E3,1.191453E3,4.0266357E2,2.9964795E2,4.3033832E2,4.525642E2,4.1344467E2,8.327637E0,1.358551E2,4.9979303E2,6.954785E1,3.116372E2,5.819026E2,8.769461E1,6.949814E1,3.3082275E0,3.711853E-1,3.9276E1,1.1264703E2,2.3287842E2,3.0035568E2,5.990753E-1,7.3173706E1,2.8513794E1,2.2853949E2,2.4995306E2,1.2206177E2,4.5167393E1,4.0327896E1,1.5881818E2,9.607574E0,0E0,0E0,0E0,0E0,0E0,0E0,0E0,0E0,0E0,0E0,0E0,0E0,0E0,0E0,0E0,0E0,0E0,0E0,0E0,0E0,0E0,0E0,0E0,0E0,0E0,0E0,0E0,0E0,0E0,0E0,0E0,0E0],"parents":[2147483647,0,0,1,1,2,2,3,3,4,4,5,5,6,6,7,7,8,8,9,9,10,10,11,11,12,12,13,13,14,14,15,15,16,16,17,17,18,18,19,19,20,20,21,21,22,22,23,23,24,24,25,25,26,26,27,27,28,28,29,29,30,30],"right_children":[2,4,6,8,10,12,14,16,18,20,22,24,26,28,30,32,34,36,38,40,42,44,46,48,50,52,54,56,58,60,62,-1,-1,-1,-1,-1,-1,-1,-1,-1,-1,-1,-1,-1,-1,-1,-1,-1,-1,-1,-1,-1,-1,-1,-1,-1,-1,-1,-1,-1,-1,-1,-1],"split_conditions":[6.058194E-1,-3.332226E-1,2.5853295E0,-1.3605105E0,5.6793797E-1,3.680544E-1,2.0319672E0,-4.5926568E-1,-7.4140835E-1,-4.700891E-1,-1.3605105E0,6.2114644E-1,1.3428736E0,-8.722781E-1,2.8296854E0,-3.38244E-1,-1.065418E-1,-1.091121E0,-1.0216401E0,-7.327634E-3,7.381446E-1,3.546436E-1,-1.0971142E0,2.66037E-1,9.8292536E-1,1.9920373E0,3.3881948E0,8.962368E-1,-1.3605105E0,2.3465881E0,3.3881948E0,-2.03963E-2,-2.4256852E-2,-2.4145637E-2,-2.6521174E-2,-6.2124627E-3,-1.4636563E-2,1.0980246E-2,-7.913598E-3,1.720882E-2,5.3846933E-2,4.4581234E-3,-1.4491691E-2,-2.9465977E-2,-3.4253128E-2,7.6771737E-3,-1.450758E-2,6.7785464E-2,5.1619876E-2,1.3482304E-2,5.0636083E-2,1.5126546E-2,-1.3524129E-2,3.5648603E-2,1.112541E-2,-2.139419E-2,1.2771604E-2,-3.9676268E-2,-1.5668662E-2,2.818503E-2,-4.307134E-2,4.5206327E-2,2.5482167E-2],"split_indices":[14,14,10,1,10,11,14,10,14,11,1,10,14,11,14,11,10,10,10,14,11,14,11,10,14,11,11,14,1,11,11,0,0,0,0,0,0,0,0,0,0,0,0,0,0,0,0,0,0,0,0,0,0,0,0,0,0,0,0,0,0,0,0],"split_type":[0,0,0,0,0,0,0,0,0,0,0,0,0,0,0,0,0,0,0,0,0,0,0,0,0,0,0,0,0,0,0,0,0,0,0,0,0,0,0,0,0,0,0,0,0,0,0,0,0,0,0,0,0,0,0,0,0,0,0,0,0,0,0],"sum_hessian":[7.9536E4,6.1898E4,1.7638E4,3.7052E4,2.4846E4,1.5084E4,2.554E3,6.779E3,3.0273E4,2.1345E4,3.501E3,2.953E3,1.2131E4,1.506E3,1.048E3,5.624E3,1.155E3,1.3821E4,1.6452E4,2.142E3,1.9203E4,5.35E2,2.966E3,1.258E3,1.695E3,6.488E3,5.643E3,5.14E2,9.92E2,5.59E2,4.89E2,4.963E3,6.61E2,4.75E2,6.8E2,1.562E3,1.2259E4,8.3E2,1.5622E4,1.538E3,6.04E2,1.6816E4,2.387E3,3.89E2,1.46E2,4.35E2,2.531E3,8.15E2,4.43E2,9.76E2,7.19E2,5.608E3,8.8E2,5.078E3,5.65E2,1.28E2,3.86E2,2.27E2,7.65E2,4.66E2,9.3E1,4.11E2,7.8E1],"tree_param":{"num_deleted":"0","num_feature":"26","num_nodes":"63","size_leaf_vector":"1"}},{"base_weights":[1.1623534E-3,-1.7794229E-1,2.9599008E-1,-2.9667664E-1,-9.228672E-2,1.334988E-1,4.9405056E-1,-3.861023E-1,-2.4840538E-1,-5.419534E-2,-2.7071834E-1,2.24722E-1,-2.1596691E-1,5.669089E-1,1.0579735E-1,-4.0133375E-1,-3.387411E-1,-8.927408E-2,-2.683558E-1,-1.1593307E-1,8.404081E-2,-2.2997425E-1,-4.669536E-1,3.855911E-1,1.496714E-1,-1.12906314E-1,-5.019321E-1,4.7707194E-1,7.4641025E-1,-1.8944101E-1,5.694142E-1,-1.940433E-2,-2.1385498E-2,-1.1670123E-2,-1.8489392E-2,-1.8803133E-2,-3.2059064E-3,-1.2395752E-2,-1.9513056E-2,-9.900348E-5,-7.924608E-3,1.5719151E-2,2.323941E-3,-1.6784666E-2,-6.082204E-3,-1.9184645E-2,-2.6776403E-2,1.7249037E-2,2.9366618E-2,4.2785387E-3,1.5531619E-2,-1.2249917E-2,-4.4762724E-4,-2.0711128E-2,-3.375579E-2,3.028361E-2,1.0763576E-2,5.92718E-2,3.559364E-2,-1.9492885E-2,-2.3075428E-3,1.6627997E-2,3.9938148E-2],"categories":[],"categories_nodes":[],"categories_segments":[],"categories_sizes":[],"default_left":[1,1,0,1,1,0,0,1,1,0,0,0,1,0,0,0,1,0,0,1,0,0,0,0,0,0,0,0,0,0,0,0,0,0,0,0,0,0,0,0,0,0,0,0,0,0,0,0,0,0,0,0,0,0,0,0,0,0,0,0,0,0,0],"id":23,"left_children":[1,3,5,7,9,11,13,15,17,19,21,23,25,27,29,31,33,35,37,39,41,43,45,47,49,51,53,55,57,59,61,-1,-1,-1,-1,-1,-1,-1,-1,-1,-1,-1,-1,-1,-1,-1,-1,-1,-1,-1,-1,-1,-1,-1,-1,-1,-1,-1,-1,-1,-1,-1,-1],"loss_changes":[4.202751E3,5.0352234E2,9.6793726E2,8.947095E1,1.9548584E2,5.2682336E2,3.8337695E2,5.1099854E0,4.2765137E1,2.0231735E2,4.0349426E1,1.58151E2,1.0076614E2,1.8368848E2,2.934363E2,1.7547607E0,5.7219696E0,1.0819196E1,2.9745483E1,7.947235E1,6.33102E1,4.7968338E1,4.756119E0,3.3944946E1,9.2182724E1,3.454617E1,1.3482361E1,2.5604626E2,5.685083E1,3.7602245E1,4.5039124E1,0E0,0E0,0E0,0E0,0E0,0E0,0E0,0E0,0E0,0E0,0E0,0E0,0E0,0E0,0E0,0E0,0E0,0E0,0E0,0E0,0E0,0E0,0E0,0E0,0E0,0E0,0E0,0E0,0E0,0E0,0E0,0E0],"parents":[2147483647,0,0,1,1,2,2,3,3,4,4,5,5,6,6,7,7,8,8,9,9,10,10,11,11,12,12,13,13,14,14,15,15,16,16,17,17,18,18,19,19,20,20,21,21,22,22,23,23,24,24,25,25,26,26,27,27,28,28,29,29,30,30],"right_children":[2,4,6,8,10,12,14,16,18,20,22,24,26,28,30,32,34,36,38,40,42,44,46,48,50,52,54,56,58,60,62,-1,-1,-1,-1,-1,-1,-1,-1,-1,-1,-1,-1,-1,-1,-1,-1,-1,-1,-1,-1,-1,-1,-1,-1,-1,-1,-1,-1,-1,-1,-1,-1],"split_conditions":[4.4960674E-2,-7.1270484E-1,8.7403315E-1,-1.1117537E0,1.59194E-2,7.7340573E-1,2.7345402E0,-1.241833E0,-9.7233766E-1,-2.88664E-1,6.037257E-1,-5.802691E-2,1.5086262E0,1.7111759E0,2.168818E0,-1.1072884E0,-1.091121E0,-1.657617E0,-4.9074996E-1,-5.903596E-1,-5.956371E-1,-1.8028234E-1,8.165834E-1,6.058194E-1,5.517726E-1,4.596932E-1,2.2214084E0,1.1173156E0,3.1467465E-1,1.3730348E0,2.8296854E0,-1.940433E-2,-2.1385498E-2,-1.1670123E-2,-1.8489392E-2,-1.8803133E-2,-3.2059064E-3,-1.2395752E-2,-1.9513056E-2,-9.900348E-5,-7.924608E-3,1.5719151E-2,2.323941E-3,-1.6784666E-2,-6.082204E-3,-1.9184645E-2,-2.6776403E-2,1.7249037E-2,2.9366618E-2,4.2785387E-3,1.5531619E-2,-1.2249917E-2,-4.4762724E-4,-2.0711128E-2,-3.375579E-2,3.028361E-2,1.0763576E-2,5.92718E-2,3.559364E-2,-1.9492885E-2,-2.3075428E-3,1.6627997E-2,3.9938148E-2],"split_indices":[14,14,14,14,10,10,10,14,10,14,10,10,10,14,14,13,10,0,10,10,10,14,10,14,14,14,10,10,10,14,14,0,0,0,0,0,0,0,0,0,0,0,0,0,0,0,0,0,0,0,0,0,0,0,0,0,0,0,0,0,0,0,0],"split_type":[0,0,0,0,0,0,0,0,0,0,0,0,0,0,0,0,0,0,0,0,0,0,0,0,0,0,0,0,0,0,0,0,0,0,0,0,0,0,0,0,0,0,0,0,0,0,0,0,0,0,0,0,0,0,0,0,0,0,0,0,0,0,0],"sum_hessian":[7.9588E4,4.9511E4,3.0077E4,2.0748E4,2.8763E4,1.6523E4,1.3554E4,7.271E3,1.3477E4,2.3704E4,5.059E3,1.3103E4,3.42E3,1.1412E4,2.142E3,5.496E3,1.775E3,1.502E3,1.1975E4,1.6386E4,7.318E3,4.191E3,8.68E2,4.167E3,8.936E3,2.515E3,9.05E2,7.608E3,3.804E3,1.309E3,8.33E2,3.669E3,1.827E3,4.06E2,1.369E3,1.2E2,1.382E3,1.0258E4,1.717E3,4.456E3,1.193E4,1.025E3,6.293E3,2.12E3,2.071E3,3.95E2,4.73E2,3.471E3,6.96E2,6.392E3,2.544E3,1.107E3,1.408E3,6.03E2,3.02E2,5.101E3,2.507E3,2.75E2,3.529E3,5.45E2,7.64E2,4.11E2,4.22E2],"tree_param":{"num_deleted":"0","num_feature":"26","num_nodes":"63","size_leaf_vector":"1"}},{"base_weights":[-1.9471065E-4,-1.5485482E-1,3.098599E-1,-2.6180944E-1,-5.3999875E-2,1.8515481E-1,5.3391E-1,-3.896671E-1,-2.2134762E-1,-1.6617304E-2,-2.704124E-1,2.7303934E-1,-1.8441376E-1,5.992127E-1,1.4849222E-1,-3.800763E-1,-4.604171E-1,-1.7696348E-1,-2.8509787E-1,-8.405257E-2,1.0598244E-1,-5.1557213E-1,-2.2665718E-1,4.5029676E-1,1.4462721E-1,-5.3828016E-2,-4.3236348E-1,7.571457E-1,5.0119287E-1,-9.509064E-2,5.688007E-1,-1.8465726E-2,-2.0534243E-2,-1.937412E-2,-2.32026E-2,1.8458556E-3,-9.96893E-3,-1.9455478E-2,-1.3600737E-2,2.4100337E-3,-6.5096966E-3,1.4521454E-2,2.5454643E-3,-2.3918677E-2,-2.6601378E-2,-1.697059E-2,-7.438986E-3,1.476529E-2,3.248934E-2,4.526587E-3,1.3230822E-2,-2.973417E-2,1.6318436E-4,-1.817981E-2,-3.4226175E-2,4.894913E-2,2.8272195E-2,2.1790607E-2,3.9880004E-2,-3.5154127E-2,9.105475E-4,2.1741359E-2,4.5411002E-2],"categories":[],"categories_nodes":[],"categories_segments":[],"categories_sizes":[],"default_left":[1,1,0,0,1,0,0,0,0,0,0,0,1,0,0,0,1,1,0,1,0,0,0,0,0,0,0,0,0,0,0,0,0,0,0,0,0,0,0,0,0,0,0,0,0,0,0,0,0,0,0,0,0,0,0,0,0,0,0,0,0,0,0],"id":24,"left_children":[1,3,5,7,9,11,13,15,17,19,21,23,25,27,29,31,33,35,37,39,41,43,45,47,49,51,53,55,57,59,61,-1,-1,-1,-1,-1,-1,-1,-1,-1,-1,-1,-1,-1,-1,-1,-1,-1,-1,-1,-1,-1,-1,-1,-1,-1,-1,-1,-1,-1,-1,-1,-1],"loss_changes":[3.8234907E3,5.7382764E2,7.41322E2,1.3347949E2,2.2150934E2,5.5379095E2,2.3871289E2,4.0354614E0,5.5447327E1,1.9304784E2,4.3145203E1,3.1345874E2,1.0604936E2,1.25214355E2,1.409289E2,1.6501465E0,1.5319824E-2,5.5456635E1,1.0847229E1,9.193203E1,8.415488E1,1.18896484E-1,3.0015793E1,1.787063E2,5.1831635E1,6.6297775E1,1.9345718E1,1.3149133E2,9.672339E1,6.008178E1,2.2569046E1,0E0,0E0,0E0,0E0,0E0,0E0,0E0,0E0,0E0,0E0,0E0,0E0,0E0,0E0,0E0,0E0,0E0,0E0,0E0,0E0,0E0,0E0,0E0,0E0,0E0,0E0,0E0,0E0,0E0,0E0,0E0,0E0],"parents":[2147483647,0,0,1,1,2,2,3,3,4,4,5,5,6,6,7,7,8,8,9,9,10,10,11,11,12,12,13,13,14,14,15,15,16,16,17,17,18,18,19,19,20,20,21,21,22,22,23,23,24,24,25,25,26,26,27,27,28,28,29,29,30,30],"right_children":[2,4,6,8,10,12,14,16,18,20,22,24,26,28,30,32,34,36,38,40,42,44,46,48,50,52,54,56,58,60,62,-1,-1,-1,-1,-1,-1,-1,-1,-1,-1,-1,-1,-1,-1,-1,-1,-1,-1,-1,-1,-1,-1,-1,-1,-1,-1,-1,-1,-1,-1,-1,-1],"split_conditions":[1.7611909E-1,-5.989844E-1,1.1997172E0,-1.3605105E0,1.9656442E-1,1.0602717E0,3.0943472E0,-4.5926568E-1,3.3196023E-1,-1.988873E-1,-1.3605105E0,-1.957824E-1,1.7819406E0,-3.0014426E-1,2.3364131E0,-5.304269E-1,-1.1875677E0,-1.091121E0,-1.1646326E0,-5.381024E-1,-3.90229E-1,-7.3368585E-1,-9.317267E-2,6.058194E-1,7.332622E-1,-1.3605105E0,3.3349261E0,9.304061E-1,2.4300578E0,-1.3605105E0,3.3600817E0,-1.8465726E-2,-2.0534243E-2,-1.937412E-2,-2.32026E-2,1.8458556E-3,-9.96893E-3,-1.9455478E-2,-1.3600737E-2,2.4100337E-3,-6.5096966E-3,1.4521454E-2,2.5454643E-3,-2.3918677E-2,-2.6601378E-2,-1.697059E-2,-7.438986E-3,1.476529E-2,3.248934E-2,4.526587E-3,1.3230822E-2,-2.973417E-2,1.6318436E-4,-1.817981E-2,-3.4226175E-2,4.894913E-2,2.8272195E-2,2.1790607E-2,3.9880004E-2,-3.5154127E-2,9.105475E-4,2.1741359E-2,4.5411002E-2],"split_indices":[14,14,14,1,10,10,10,10,1,14,1,1,10,1,14,13,14,10,14,10,10,6,14,14,14,1,10,10,14,1,14,0,0,0,0,0,0,0,0,0,0,0,0,0,0,0,0,0,0,0,0,0,0,0,0,0,0,0,0,0,0,0,0],"split_type":[0,0,0,0,0,0,0,0,0,0,0,0,0,0,0,0,0,0,0,0,0,0,0,0,0,0,0,0,0,0,0,0,0,0,0,0,0,0,0,0,0,0,0,0,0,0,0,0,0,0,0,0,0,0,0,0,0,0,0,0,0,0,0],"sum_hessian":[7.9732E4,5.3197E4,2.6535E4,2.5817E4,2.738E4,1.7048E4,9.487E3,6.204E3,1.9613E4,2.3348E4,4.032E3,1.3773E4,3.275E3,8.112E3,1.375E3,5.469E3,7.35E2,1.1565E4,8.048E3,1.5063E4,8.285E3,6.09E2,3.423E3,5.785E3,7.988E3,2.146E3,1.129E3,3.104E3,5.008E3,8.71E2,5.04E2,4.056E3,1.413E3,4E1,6.95E2,1.097E3,1.0468E4,8.96E2,7.152E3,3.896E3,1.1167E4,1.904E3,6.381E3,1.96E2,4.13E2,1.397E3,2.026E3,3.257E3,2.528E3,5.507E3,2.481E3,2.04E2,1.942E3,8.89E2,2.4E2,1.437E3,1.667E3,4.105E3,9.03E2,1.36E2,7.35E2,3.63E2,1.41E2],"tree_param":{"num_deleted":"0","num_feature":"26","num_nodes":"63","size_leaf_vector":"1"}},{"base_weights":[1.4261287E-3,-1.3123831E-1,3.353785E-1,-2.3459494E-1,-1.9115912E-2,2.1126726E-1,5.184995E-1,-3.7236962E-1,-1.9628808E-1,2.2934401E-2,-2.3460421E-1,3.09112E-1,-1.6266368E-1,5.9943885E-1,2.5670314E-1,-3.5693592E-1,-4.262892E-1,-1.5250973E-1,-2.6417655E-1,-6.0172163E-2,1.3083303E-1,-1.7722578E-1,-4.2771155E-1,5.502722E-1,2.0360336E-1,-4.3886174E-2,-4.528413E-1,7.724141E-1,4.9132067E-1,3.9763935E-2,6.7325467E-1,-1.7620958E-2,-2.1760449E-2,-1.9773848E-2,-2.2080159E-2,3.137538E-3,-8.643077E-3,-1.6621673E-2,-1.2272387E-2,1.972137E-3,-6.8075433E-3,1.1183323E-2,1.257247E-3,-1.7448012E-2,-5.245342E-3,-1.7872375E-2,-2.7643237E-2,3.810857E-2,1.4053543E-2,1.5429676E-2,6.868144E-3,-2.8479848E-2,6.2844064E-4,-1.8204933E-2,-3.0639604E-2,4.7437422E-2,3.037796E-2,1.9595781E-2,3.4221165E-2,-3.0984262E-2,7.6219547E-3,2.5105199E-2,4.1095145E-2],"categories":[],"categories_nodes":[],"categories_segments":[],"categories_sizes":[],"default_left":[1,1,0,0,1,0,0,0,0,0,0,0,1,0,0,0,1,1,0,1,0,0,0,0,0,0,0,0,0,0,0,0,0,0,0,0,0,0,0,0,0,0,0,0,0,0,0,0,0,0,0,0,0,0,0,0,0,0,0,0,0,0,0],"id":25,"left_children":[1,3,5,7,9,11,13,15,17,19,21,23,25,27,29,31,33,35,37,39,41,43,45,47,49,51,53,55,57,59,61,-1,-1,-1,-1,-1,-1,-1,-1,-1,-1,-1,-1,-1,-1,-1,-1,-1,-1,-1,-1,-1,-1,-1,-1,-1,-1,-1,-1,-1,-1,-1,-1],"loss_changes":[3.532149E3,6.612291E2,5.1505176E2,1.5662231E2,2.4801453E2,4.9441626E2,1.9385815E2,